<?xml version="1.0"?>
<opencv_storage>
<opencv_ml_svm>
  <format>3</format>
  <svmType>C_SVC</svmType>
  <kernel>
    <type>LINEAR</type></kernel>
  <C>1.</C>
  <term_criteria><iterations>100</iterations></term_criteria>
  <var_count>144</var_count>
  <class_count>2</class_count>
  <class_labels type_id="opencv-matrix">
    <rows>2</rows>
    <cols>1</cols>
    <dt>i</dt>
    <data>
      -1082130432 1065353216</data></class_labels>
  <sv_total>1</sv_total>
  <support_vectors>
    <_>
      -9.83048379e-001 -9.52436388e-001 -4.06737059e-001
      -5.54761827e-001 -2.21529484e-001 -8.27174544e-001 5.71521148e-002
      -6.52621016e-002 2.68615097e-001 -5.42089462e-001 -1.06402779e+000
      -9.06715393e-001 -8.62337768e-001 -1.61684468e-001
      -2.92671192e-002 -6.79830492e-001 -9.11000490e-001
      -6.41894698e-001 -8.67750883e-001 -5.20836055e-001
      -2.14067534e-001 -5.95754646e-002 -2.20810920e-001
      -1.49989203e-001 1.39496595e-001 -1.13909900e+000 -7.20198572e-001
      -5.49389482e-001 -7.84877390e-002 6.89135417e-002 3.31283778e-001
      3.48375767e-001 -3.84164006e-001 8.01519528e-002 -7.00037897e-001
      -2.19112352e-001 4.46113884e-001 -2.15713412e-001 -4.95540589e-001
      -6.04208350e-001 -8.19244623e-001 -2.60176927e-001 4.69355345e-001
      3.22390371e-003 -8.44673738e-002 1.22294798e-001 -1.09988175e-001
      1.28883421e-001 -6.58443272e-001 -3.89656305e-001 -6.21508002e-001
      -1.51553238e-002 2.54292160e-001 2.06213668e-001 1.16933987e-001
      -1.38913058e-002 2.19236940e-001 -3.43561769e-001 -7.31993318e-001
      9.20558274e-002 9.44578290e-001 -1.38991578e-002 1.57625660e-001
      3.11409049e-002 6.42066538e-001 5.43556929e-001 1.21347271e-001
      -1.03237367e+000 3.87313552e-002 1.36427653e+000 6.24361277e-001
      5.97664595e-001 2.47391403e-001 1.76193863e-001 3.43302906e-001
      -3.21364790e-001 -2.31042430e-001 -5.25729954e-001
      -8.62758979e-002 4.72554147e-001 -3.36914182e-001 -2.64367551e-001
      3.11649591e-001 4.22087699e-001 -9.57393885e-001 -1.31198034e-001
      -3.32224548e-001 -1.43922076e-001 -1.44498155e-001
      -1.67736970e-002 5.08558393e-001 1.25383139e-001 1.31176978e-001
      -1.66061670e-001 -1.93145469e-001 -2.04413354e-001
      -1.85084105e-001 -2.01126322e-001 -3.07082534e-001 3.09085488e-001
      7.24594057e-001 8.40387225e-001 -9.97916386e-002 -8.98437858e-001
      -2.87145376e-001 7.03385249e-002 5.00592828e-001 1.25334173e-001
      1.01001583e-001 -2.87946433e-001 -1.12249576e-001 -3.12818408e-001
      5.13149798e-001 -2.65316337e-001 -5.09553134e-001 -9.27206397e-001
      -4.65122372e-001 -4.28799659e-001 -3.57464910e-001
      -6.50162160e-001 -4.07561123e-001 2.51825303e-001 6.71394765e-002
      -1.31842387e+000 -3.11416358e-001 -5.03504753e-001
      -6.14862740e-001 -6.05735779e-001 -9.40100908e-001 1.55430183e-001
      4.47962046e-001 5.29194288e-002 -4.01556551e-001 -5.77687502e-001
      -6.44592345e-001 -2.91636605e-002 -6.20900750e-001
      -4.59222585e-001 -1.07540011e+000 2.51297057e-001 5.04775345e-001
      4.35490429e-001 -2.40248024e-001 -9.53835607e-001</_></support_vectors>
  <uncompressed_sv_total>111</uncompressed_sv_total>
  <uncompressed_support_vectors>
    <_>
      3.75270575e-001 3.75270575e-001 3.29717666e-001 3.75270575e-001
      3.75270575e-001 1.63982317e-001 1.25215486e-001 3.75270575e-001
      3.75270575e-001 2.04831168e-001 4.20830578e-001 4.20830578e-001
      4.20830578e-001 4.20830578e-001 2.77050763e-001 3.42430085e-001
      1.95842907e-001 1.14354543e-001 3.62290710e-001 3.62290710e-001
      3.62290710e-001 3.62290710e-001 3.62290710e-001 3.62290710e-001
      1.85687765e-001 2.96288729e-001 2.94254959e-001 1.08174281e-002
      3.56995702e-001 3.56995702e-001 3.56995702e-001 3.56995702e-001
      3.56995702e-001 3.56995702e-001 3.56995702e-001 3.22791964e-001
      3.67879242e-001 3.05952609e-001 3.28453660e-001 3.67879242e-001
      3.67879242e-001 3.67879242e-001 7.26824850e-002 3.35972369e-001
      3.67879242e-001 1.36306226e-001 3.32573116e-001 4.22411263e-001
      4.22411263e-001 4.22411263e-001 4.22411263e-001 3.12976658e-001
      1.64996028e-001 1.66411996e-001 2.85839550e-002 3.08969021e-001
      1.30845994e-001 4.81300801e-001 4.81300801e-001 4.81300801e-001
      4.14979607e-001 1.02580592e-001 6.41169772e-002 3.60756293e-002
      1.06140941e-001 5.40716290e-001 5.40716290e-001 5.40716290e-001
      3.15508038e-001 6.97767660e-002 1.06244511e-003 2.22557671e-002
      3.32778692e-001 3.32778692e-001 3.32778692e-001 3.32778692e-001
      3.32778692e-001 3.32778692e-001 3.32778692e-001 3.32778692e-001
      3.32778692e-001 3.70985329e-001 1.78770885e-001 1.87456891e-001
      3.21580231e-001 3.70985329e-001 3.70985329e-001 3.70985329e-001
      3.70985329e-001 3.70985329e-001 3.43668371e-001 1.75737754e-001
      1.25318259e-001 3.72286677e-001 3.72286677e-001 3.72286677e-001
      3.72286677e-001 3.72286677e-001 3.72286677e-001 1.76607698e-001
      2.98558478e-003 2.48569369e-001 5.92890799e-001 5.92890799e-001
      3.99113566e-001 9.94555745e-003 1.54977916e-002 1.96020871e-001
      3.69552761e-001 2.80931443e-001 1.80717915e-001 3.69552761e-001
      3.69552761e-001 3.69552761e-001 2.55560338e-001 3.69552761e-001
      3.69552761e-001 3.95547926e-001 1.70158401e-001 2.06007034e-001
      3.95547926e-001 3.95547926e-001 3.95547926e-001 3.72700274e-001
      5.88167422e-002 3.95547926e-001 3.70110333e-001 3.70110333e-001
      3.33697498e-001 1.24922343e-001 3.70110333e-001 3.70110333e-001
      3.70110333e-001 2.17836946e-001 3.70110333e-001 9.21050832e-002
      2.93974459e-001 4.39057797e-001 4.57495779e-001 4.57495779e-001
      3.01442832e-001 2.03682363e-001 2.40000322e-001 3.14952314e-001</_>
    <_>
      3.49710196e-001 3.49710196e-001 3.49710196e-001 3.49710196e-001
      3.49710196e-001 2.58079827e-001 3.02153438e-001 3.23760331e-001
      3.49710196e-001 3.69757414e-001 3.69757414e-001 3.37673992e-001
      3.69757414e-001 3.69757414e-001 1.63469434e-001 3.69757414e-001
      1.87714115e-001 3.69757414e-001 3.72247308e-001 3.72247308e-001
      3.04138005e-001 3.72247308e-001 3.72247308e-001 2.81300277e-001
      1.07511789e-001 3.46773833e-001 3.72247308e-001 1.33987427e-001
      5.21162990e-003 7.35109746e-002 4.62696701e-001 4.62696701e-001
      4.62696701e-001 1.08458400e-001 3.22302192e-001 4.62696701e-001
      3.99206549e-001 3.99206549e-001 3.99206549e-001 2.34352380e-001
      3.17569643e-001 1.04696579e-001 1.80137873e-001 3.99206549e-001
      3.99206549e-001 3.44231486e-001 3.44231486e-001 3.44231486e-001
      3.44231486e-001 3.44231486e-001 3.44231486e-001 2.86108583e-001
      2.91950673e-001 3.44231486e-001 4.19405162e-001 4.28854913e-001
      4.28854913e-001 4.28854913e-001 4.28854913e-001 3.97879891e-002
      6.77570999e-002 2.22634047e-001 1.68550193e-001 1.52327623e-002
      1.81394350e-002 4.78004152e-003 3.36475484e-002 7.03393877e-001
      7.03393877e-001 2.45130416e-002 3.05595621e-002 1.42047480e-002
      3.92831773e-001 7.09968135e-002 2.48434350e-001 2.05768377e-001
      3.52348417e-001 3.81520957e-001 3.92831773e-001 3.92831773e-001
      3.92831773e-001 3.22634101e-001 2.09359042e-002 4.24027532e-001
      4.24027532e-001 4.24027532e-001 4.24027532e-001 1.60010904e-001
      9.19789672e-002 3.71446013e-001 3.90834302e-001 2.23404393e-001
      3.57555032e-001 3.90834302e-001 3.90834302e-001 3.90834302e-001
      3.90834302e-001 1.47317633e-001 1.81330308e-001 4.03303392e-002
      4.56652269e-002 4.16479306e-003 4.03812617e-001 6.37442470e-001
      6.37442470e-001 4.26912680e-002 2.24837922e-002 1.08848989e-001
      3.89780819e-001 3.89780819e-001 2.73881406e-001 8.23835209e-002
      3.89780819e-001 3.83150488e-001 8.86463970e-002 3.89780819e-001
      3.89780819e-001 3.66998792e-001 3.36628467e-001 3.66998792e-001
      2.32485637e-001 3.66998792e-001 3.66998792e-001 1.44348115e-001
      3.66998792e-001 3.66998792e-001 3.70725363e-001 3.70725363e-001
      3.70725363e-001 3.18987995e-001 3.70725363e-001 3.70725363e-001
      7.15925246e-002 2.54546076e-001 3.70725363e-001 4.57291663e-001
      1.00654647e-001 1.59438729e-001 4.57291663e-001 4.57291663e-001
      4.57291663e-001 1.98234275e-001 6.90180808e-002 2.81704485e-001</_>
    <_>
      4.23888654e-001 1.56123281e-001 1.21860050e-001 2.99080759e-001
      3.14994812e-001 3.41422498e-001 3.35046470e-001 4.23888654e-001
      4.23888654e-001 3.39284748e-001 3.39284748e-001 3.39284748e-001
      3.39284748e-001 3.39284748e-001 3.39284748e-001 3.39284748e-001
      3.39284748e-001 2.75130451e-001 3.59417319e-001 2.97506243e-001
      6.02772012e-002 3.59417319e-001 3.59417319e-001 3.59417319e-001
      3.59417319e-001 3.59417319e-001 3.59417319e-001 2.06647784e-001
      1.37849227e-001 7.67955333e-002 4.14952427e-001 4.43580449e-001
      4.43580449e-001 3.62267643e-001 4.43580449e-001 1.85071811e-001
      2.90286928e-001 9.35607180e-002 2.92126447e-001 3.80465895e-001
      3.80465895e-001 3.64286482e-001 3.25759321e-001 3.80465895e-001
      3.80465895e-001 1.85029685e-001 2.09179416e-001 1.69808477e-001
      3.45411509e-001 5.53305984e-001 5.53305984e-001 3.56894225e-001
      1.38689652e-001 9.71353650e-002 9.51096714e-002 3.07754707e-002
      1.05228849e-001 4.81433839e-001 4.81433839e-001 4.81433839e-001
      4.81433839e-001 1.33361861e-001 1.70955449e-001 8.64094198e-002
      4.28299047e-003 6.14614808e-004 9.80245620e-002 6.97394848e-001
      6.97394848e-001 1.70660987e-002 3.02590579e-002 4.49223556e-002
      3.60252291e-001 3.60252291e-001 3.60252291e-001 2.49348402e-001
      3.60252291e-001 2.19526201e-001 3.35602880e-001 3.52840602e-001
      3.60252291e-001 4.36142311e-002 1.16076827e-001 1.85224682e-001
      3.51800919e-001 6.33661985e-001 6.33661985e-001 1.09540708e-001
      6.19500279e-002 3.65164280e-002 1.55464485e-001 1.39500692e-001
      2.97894895e-001 4.90728617e-001 4.90728617e-001 4.90728617e-001
      3.71567339e-001 3.63382325e-002 3.00198011e-002 3.06219812e-002
      8.72229561e-002 1.14437729e-001 1.75773755e-001 6.79253995e-001
      6.79253995e-001 4.74853180e-002 3.71589214e-002 1.19471163e-001
      3.91713232e-001 3.91713232e-001 2.10838825e-001 1.22894980e-001
      3.91713232e-001 1.26075342e-001 3.91713232e-001 3.91713232e-001
      3.91713232e-001 3.91206652e-001 3.91206652e-001 6.83334917e-002
      3.91206652e-001 3.91206652e-001 1.18400261e-001 2.43203133e-001
      3.91206652e-001 3.91206652e-001 3.76928896e-001 3.76928896e-001
      3.76928896e-001 3.76928896e-001 3.56931359e-001 2.90959626e-001
      3.76928896e-001 2.09186181e-001 1.73323452e-001 2.33309139e-002
      7.40239164e-003 2.77294032e-002 5.96850812e-001 5.96850812e-001
      5.28331399e-001 1.56907812e-002 7.54432147e-003 2.78118495e-002</_>
    <_>
      1.53272361e-001 2.86921561e-001 4.58526582e-001 4.58526582e-001
      4.58526582e-001 4.58526582e-001 2.10398912e-001 0. 6.59501329e-002
      4.29657698e-002 2.64109880e-001 5.26119411e-001 5.26119411e-001
      5.26119411e-001 1.94472119e-001 7.61052519e-002 1.10453278e-001
      1.92169964e-001 4.23569918e-001 4.23569918e-001 4.23569918e-001
      4.23569918e-001 2.28534147e-001 5.63660935e-002 7.71822110e-002
      1.93260044e-001 4.23569918e-001 2.76188195e-001 6.40486628e-002
      8.56094360e-002 2.26003155e-001 5.51771581e-001 5.51771581e-001
      4.64269847e-001 4.19531018e-002 1.71729252e-001 6.20617829e-002
      1.44333646e-001 2.87641317e-001 4.76677150e-001 4.76677150e-001
      4.76677150e-001 3.82933706e-001 2.27567419e-001 8.79154354e-002
      2.34314382e-001 3.72718573e-001 3.72718573e-001 3.72718573e-001
      3.72718573e-001 1.90550387e-001 3.72718573e-001 2.67486155e-001
      3.72718573e-001 1.32987097e-001 3.54505897e-001 2.50542998e-001
      4.66454118e-001 4.66454118e-001 4.34556603e-001 2.97434032e-001
      1.24303825e-001 2.47572824e-001 1.43104149e-002 2.27452442e-002
      1.60678104e-002 6.80822805e-002 7.02231944e-001 7.02231944e-001
      7.13575352e-003 1.11548435e-002 3.06554940e-002 9.36069861e-002
      7.41280317e-002 1.45266116e-001 4.16127592e-001 4.16127592e-001
      4.16127592e-001 4.16127592e-001 3.73750567e-001 3.57973903e-001
      3.62623960e-001 3.62623960e-001 3.62623960e-001 3.62623960e-001
      3.62623960e-001 2.24506110e-001 3.62623960e-001 3.62623960e-001
      1.59690648e-001 1.12352483e-002 1.72098372e-002 1.33453354e-001
      4.96434063e-001 4.96434063e-001 4.96434063e-001 4.87307847e-001
      4.70147963e-004 1.60954849e-004 6.28961101e-002 4.09220997e-003
      7.56521374e-002 1.08273149e-001 6.88103735e-001 6.88103735e-001
      1.22965045e-001 8.73147771e-002 4.46544923e-002 3.79480958e-001
      2.77407080e-001 3.79480958e-001 3.79480958e-001 3.79480958e-001
      3.79480958e-001 3.79480958e-001 1.43691644e-001 1.85935602e-001
      2.00473338e-001 3.71560425e-001 3.71560425e-001 2.90571779e-001
      3.71560425e-001 3.71560425e-001 3.71560425e-001 3.71560425e-001
      2.08143041e-001 3.92775983e-001 3.92775983e-001 3.92775983e-001
      3.92775983e-001 3.92775983e-001 1.98630452e-001 3.15968469e-002
      2.94492543e-001 3.12302589e-001 3.08101267e-001 4.57329810e-001
      1.24864206e-001 1.49824381e-001 4.57329810e-001 4.57329810e-001
      1.04528129e-001 1.22225076e-001 4.57329810e-001</_>
    <_>
      2.27985427e-001 3.34453762e-001 4.02256876e-001 4.02256876e-001
      4.02256876e-001 4.02256876e-001 2.90462166e-001 1.69990659e-001
      2.67651528e-001 4.00598526e-001 4.24868017e-001 4.24868017e-001
      4.24868017e-001 4.24868017e-001 2.45531246e-001 6.37094006e-002
      2.28518527e-002 2.19905883e-001 4.16553736e-001 4.16553736e-001
      4.16553736e-001 4.16553736e-001 4.16553736e-001 2.83232480e-001
      7.89283514e-002 5.27405180e-002 1.97539046e-001 4.58262712e-001
      7.96637833e-002 1.37824073e-001 1.84926495e-001 5.61736286e-001
      5.61736286e-001 1.01484545e-001 8.71321484e-002 2.75426745e-001
      5.41286282e-002 1.04271747e-001 1.38492182e-001 5.39737344e-001
      5.39737344e-001 5.39737344e-001 2.70093024e-001 1.18708916e-001
      2.52230968e-002 5.72662838e-002 2.30269447e-001 4.37253863e-001
      4.37253863e-001 4.37253863e-001 4.37253863e-001 1.66067451e-001
      3.05297881e-001 2.31904596e-001 1.70475513e-001 1.44486755e-001
      2.69918740e-001 4.64936495e-001 4.64936495e-001 4.64936495e-001
      3.06151062e-001 1.47477806e-001 3.29523295e-001 9.06461850e-003
      3.50220911e-002 1.54085830e-003 6.82922751e-002 7.00632036e-001
      7.00632036e-001 6.67722151e-002 2.80605126e-002 3.81641882e-003
      3.67352724e-001 3.17728996e-001 3.67352724e-001 3.67352724e-001
      3.67352724e-001 3.67352724e-001 3.67352724e-001 2.10304275e-001
      2.03622177e-001 3.60218614e-001 3.60218614e-001 1.76447958e-001
      3.60218614e-001 3.60218614e-001 3.60218614e-001 3.60218614e-001
      2.38673404e-001 3.60218614e-001 2.88670007e-002 4.45522554e-002
      1.29980460e-001 4.02703792e-001 6.05289638e-001 6.05289638e-001
      2.65054464e-001 5.93114495e-002 7.44994283e-002 4.38959002e-001
      2.36731693e-001 1.29246831e-001 1.38216957e-001 5.25282264e-001
      5.25282264e-001 3.40330839e-001 1.88743502e-001 8.32244903e-002
      4.40148562e-002 2.03567430e-001 2.70264208e-001 5.28494298e-001
      5.28494298e-001 5.28494298e-001 1.86685994e-001 3.71079259e-002
      6.44588917e-002 3.10692310e-001 3.42065960e-001 3.42065960e-001
      3.42065960e-001 3.42065960e-001 3.42065960e-001 3.42065960e-001
      3.42065960e-001 2.84585297e-001 3.58934015e-001 3.58934015e-001
      3.58934015e-001 3.36300254e-001 3.14168543e-001 2.97338277e-001
      2.28114098e-001 3.58934015e-001 3.58934015e-001 3.68056387e-001
      3.68056387e-001 2.74165958e-001 3.48347276e-001 3.68056387e-001
      2.59932250e-001 3.61707360e-001 2.44030967e-001 3.68056387e-001</_>
    <_>
      2.48616293e-001 4.80470061e-002 4.22210515e-001 4.22210515e-001
      4.22210515e-001 4.22210515e-001 1.75514728e-001 9.77233276e-002
      4.22210515e-001 3.64133865e-001 2.10505649e-001 3.03854525e-001
      2.53300190e-001 3.64133865e-001 3.64133865e-001 3.64133865e-001
      3.64133865e-001 3.64133865e-001 3.48049253e-001 3.11361670e-001
      2.98418015e-001 3.29660743e-001 3.48049253e-001 3.48049253e-001
      3.10089588e-001 3.48049253e-001 3.48049253e-001 3.30376439e-002
      1.02368500e-002 2.75588743e-002 2.52679735e-001 5.84949195e-001
      5.84949195e-001 4.47168738e-001 2.08485425e-001 2.44759563e-002
      3.52067977e-001 1.91807479e-001 3.52067977e-001 3.52067977e-001
      3.52067977e-001 3.52067977e-001 3.03363502e-001 3.52067977e-001
      3.52067977e-001 1.90784439e-001 3.01156163e-001 4.13684189e-001
      4.13684189e-001 4.13684189e-001 4.13684189e-001 4.13684189e-001
      7.46982768e-002 8.67230222e-002 2.33638361e-001 4.68390763e-001
      1.56635180e-001 4.68390763e-001 4.68390763e-001 4.68390763e-001
      1.46040574e-001 1.00783117e-001 8.45896453e-002 2.62632780e-003
      6.16921112e-004 5.84020019e-002 5.51747382e-001 8.26581597e-001
      2.13158242e-002 1.26004545e-002 5.89656876e-003 4.79056127e-003
      2.67649800e-001 3.09453845e-001 3.87813479e-001 7.06794858e-002
      2.67834961e-001 3.87813479e-001 3.87813479e-001 3.87813479e-001
      3.87813479e-001 5.22206873e-002 3.64212133e-002 1.23646975e-001
      5.88355839e-001 5.88355839e-001 5.18077135e-001 1.03572480e-001
      2.39581000e-002 5.24677001e-002 1.78549960e-001 2.54571110e-001
      2.28509873e-001 3.93595397e-001 4.67202872e-001 4.67202872e-001
      4.67202872e-001 1.54069671e-002 1.90892383e-001 2.62790490e-002
      1.51522785e-001 1.26710415e-001 5.43649673e-001 5.43649673e-001
      5.43649673e-001 2.51621872e-001 3.35736126e-002 6.13200180e-002
      3.38549018e-001 3.38549018e-001 2.82301009e-001 3.38549018e-001
      3.38549018e-001 3.38549018e-001 3.38549018e-001 3.38549018e-001
      3.38549018e-001 3.97200406e-001 2.44500667e-001 3.97200406e-001
      3.97200406e-001 3.97200406e-001 3.97200406e-001 2.34358445e-001
      1.86350450e-001 2.40333691e-001 3.82272243e-001 3.30957711e-001
      3.82272243e-001 2.31640354e-001 3.82272243e-001 1.70404553e-001
      2.70726085e-001 3.82272243e-001 3.82272243e-001 4.01122242e-001
      2.45549649e-001 1.51226178e-001 4.01122242e-001 4.01122242e-001
      4.01122242e-001 4.01122242e-001 3.13485384e-001 1.00301951e-001</_>
    <_>
      3.43570024e-001 1.44875288e-001 3.49558681e-001 3.50067139e-001
      3.50067139e-001 3.50067139e-001 3.50067139e-001 3.50067139e-001
      3.50067139e-001 3.37098628e-001 3.37098628e-001 3.37098628e-001
      3.37098628e-001 2.95885146e-001 3.37098628e-001 3.37098628e-001
      3.37098628e-001 3.37098628e-001 4.07501757e-001 3.63202214e-001
      4.07501757e-001 1.54937834e-001 3.86380255e-001 1.25206664e-001
      1.03973433e-001 4.07501757e-001 4.07501757e-001 4.11545753e-001
      3.72337215e-002 4.11545753e-001 4.11545753e-001 4.11545753e-001
      3.23303998e-001 1.27320707e-001 1.64063051e-001 4.11545753e-001
      7.31389448e-002 4.34245676e-001 2.99515247e-001 1.92232952e-001
      4.34245676e-001 4.10315782e-001 4.34245676e-001 3.56101125e-001
      5.26786894e-002 7.74888229e-003 3.01687419e-001 4.45839137e-001
      4.45839137e-001 4.45839137e-001 4.45839137e-001 2.18996868e-001
      2.47648120e-001 9.58226435e-003 9.91315618e-002 7.18988627e-002
      9.24351364e-002 5.35546541e-001 5.35546541e-001 5.35546541e-001
      2.14273602e-001 2.47015610e-001 6.12434633e-002 1.03712333e-002
      2.17859998e-001 2.36983076e-001 1.19682424e-001 5.02225101e-001
      3.46503466e-001 5.02225101e-001 5.02225101e-001 1.31850764e-002
      9.57321525e-002 4.44290973e-002 9.25829820e-003 5.59427738e-001
      5.59427738e-001 5.59427738e-001 1.55939817e-001 1.30901605e-001
      5.34645878e-002 3.26872915e-002 1.37651145e-001 4.16602135e-001
      4.16602135e-001 4.16602135e-001 4.16602135e-001 4.16602135e-001
      3.12753022e-001 1.01098247e-001 2.49457434e-001 7.68802315e-002
      2.28132904e-001 4.87951487e-001 4.87951487e-001 4.87951487e-001
      9.72485228e-004 2.85668429e-002 3.99794221e-001 1.76548079e-001
      4.06304091e-001 2.42191195e-001 5.47641456e-001 5.47641456e-001
      1.65742293e-001 1.33380666e-002 3.01447362e-001 1.45879865e-001
      1.89017385e-001 4.01741028e-001 3.44560474e-001 4.01741028e-001
      4.01741028e-001 4.01741028e-001 2.26998225e-001 1.91942826e-001
      3.27999026e-001 3.62798512e-001 3.62798512e-001 2.54953235e-001
      2.01150656e-001 3.62798512e-001 3.18081915e-001 3.62798512e-001
      3.62798512e-001 3.62798512e-001 3.92231792e-001 3.92231792e-001
      3.92231792e-001 9.65148285e-002 1.95741385e-001 3.02759260e-001
      2.95905024e-001 3.92231792e-001 3.92231792e-001 4.07441378e-001
      2.87074238e-001 1.45227715e-001 4.07441378e-001 4.07441378e-001
      4.07441378e-001 2.49586776e-001 9.54363123e-003 4.07441378e-001</_>
    <_>
      1.32118359e-001 3.73216309e-002 2.85370171e-001 4.11808640e-001
      4.11808640e-001 4.11808640e-001 4.11808640e-001 4.11808640e-001
      2.18334869e-001 3.86943489e-001 2.25503489e-001 1.02717452e-001
      3.86943489e-001 3.86943489e-001 3.86943489e-001 2.41976798e-001
      3.57145071e-001 3.86943489e-001 4.19203341e-001 8.87252986e-002
      7.43977502e-002 2.78796226e-001 4.19203341e-001 4.19203341e-001
      4.19203341e-001 1.61308989e-001 4.19203341e-001 3.64996701e-001
      3.64996701e-001 1.52387515e-001 2.01427802e-001 3.64996701e-001
      3.64996701e-001 3.64996701e-001 3.64996701e-001 3.64996701e-001
      2.23254308e-001 2.90205479e-001 3.70763987e-001 3.70763987e-001
      3.70763987e-001 3.45593899e-001 2.35519379e-001 3.70763987e-001
      3.70763987e-001 1.11439176e-001 1.74889103e-001 1.99318632e-001
      3.72364968e-001 7.44919896e-001 3.28777432e-001 2.56145388e-001
      1.72838405e-001 1.12661034e-001 1.74322173e-001 3.46955061e-002
      7.78437331e-002 2.50984281e-001 6.10078394e-001 3.32738519e-001
      8.33546892e-002 1.76662505e-001 6.10078394e-001 2.42324412e-001
      1.70590028e-001 7.18346462e-002 5.44450283e-001 5.44450283e-001
      5.44450283e-001 6.51627481e-002 0. 8.97566453e-002 1.50502279e-001
      1.62962988e-001 3.78790684e-002 5.56527555e-001 5.56527555e-001
      4.06340063e-001 1.19202532e-001 1.20844685e-001 3.61149818e-001
      3.12026620e-001 1.54155567e-001 2.23016098e-001 4.10584748e-001
      6.98765218e-001 3.92036468e-001 8.63180235e-002 4.55028936e-002
      4.57972437e-002 2.38068536e-001 4.55143988e-001 1.43684864e-001
      4.55143988e-001 4.55143988e-001 1.67144701e-001 1.55386761e-001
      1.93455666e-001 4.55143988e-001 1.31900245e-002 7.69659802e-002
      1.77393258e-001 2.71665007e-001 5.89441538e-001 3.12704921e-001
      5.34941733e-001 2.66991198e-001 2.82972813e-001 4.13959712e-001
      2.68588781e-001 7.21277222e-002 1.14744239e-001 4.13959712e-001
      4.13959712e-001 3.13912183e-001 3.48374218e-001 4.13959712e-001
      3.69782597e-001 1.86803728e-001 6.50819391e-002 3.69782597e-001
      3.69782597e-001 3.69782597e-001 3.69782597e-001 3.69782597e-001
      3.69782597e-001 3.92539769e-001 2.00341001e-001 1.53784141e-001
      8.81338492e-002 3.92539769e-001 3.92539769e-001 3.92539769e-001
      3.92539769e-001 3.92539769e-001 8.48711058e-002 1.90434098e-001
      5.58708847e-001 5.58708847e-001 5.58708847e-001 1.04306057e-001
      1.48326056e-002 5.47239138e-003 5.79313673e-002</_>
    <_>
      5.06217442e-002 8.54594409e-002 1.16402075e-001 4.19039339e-001
      5.84504306e-001 5.84504306e-001 2.99699783e-001 7.25643262e-002
      1.29530549e-001 4.12573010e-001 4.12573010e-001 4.12573010e-001
      4.12573010e-001 3.38515729e-001 2.68854082e-001 2.58139253e-001
      1.69867635e-001 1.80682600e-001 2.35506147e-001 3.68308455e-001
      3.68308455e-001 2.49715716e-001 3.68308455e-001 3.68308455e-001
      3.66719663e-001 3.68308455e-001 2.56438136e-001 3.93167108e-001
      2.02210680e-001 1.73141956e-001 1.51298463e-001 3.93167108e-001
      3.93167108e-001 3.93167108e-001 3.59738886e-001 3.93167108e-001
      1.07452236e-001 4.07693945e-002 2.34253317e-001 4.25203770e-001
      4.25203770e-001 4.25203770e-001 4.25203770e-001 4.25203770e-001
      1.53878078e-001 1.15013354e-001 2.35912338e-001 2.50289679e-001
      4.92303938e-001 4.92303938e-001 4.92303938e-001 3.16001087e-001
      1.56736642e-001 1.09739460e-001 2.84980178e-001 1.23417675e-001
      1.34222759e-002 2.78640926e-001 5.63091457e-001 5.63091457e-001
      2.62251019e-001 2.03346089e-001 2.75392771e-001 1.88732103e-001
      4.58829880e-001 4.58829880e-001 4.58829880e-001 4.58829880e-001
      3.38429689e-001 3.40605788e-002 2.74740122e-002 3.53288464e-002
      1.11274077e-002 7.24682063e-002 1.23828612e-001 3.04880828e-001
      5.80006540e-001 5.80006540e-001 3.54276508e-001 2.85352618e-001
      2.81758830e-002 1.86639458e-001 1.84708059e-001 3.89299750e-001
      4.76308078e-001 4.76308078e-001 4.76308078e-001 2.38178641e-001
      1.73099801e-001 8.62340853e-002 1.42538130e-001 1.78933561e-001
      3.60598832e-001 5.79228103e-001 5.79228103e-001 3.60556841e-001
      5.31770252e-002 8.29883665e-002 3.35244909e-002 7.88913369e-002
      5.15262655e-004 1.54185621e-003 2.79845595e-001 6.37064695e-001
      5.80262244e-001 1.49251357e-001 3.71542722e-001 7.88913369e-002
      1.18536860e-001 6.61728531e-002 8.74906927e-002 4.37197417e-001
      4.37197417e-001 4.37197417e-001 4.37197417e-001 4.37197417e-001
      1.17645763e-001 2.39412993e-001 3.21060538e-001 2.04593495e-001
      3.63801330e-001 3.63801330e-001 3.63801330e-001 3.63801330e-001
      3.63801330e-001 3.63801330e-001 5.39845191e-002 1.21681988e-001
      3.91726255e-001 3.91726255e-001 3.91726255e-001 3.91726255e-001
      3.91726255e-001 3.91726255e-001 2.40143940e-001 1.15150787e-001
      1.86643796e-004 1.26272459e-002 6.65144503e-001 6.65144503e-001
      2.55242109e-001 9.45123192e-003 3.03720459e-002 1.70134544e-001</_>
    <_>
      7.72251934e-002 7.12315291e-002 6.57291785e-002 1.87302366e-001
      5.96926033e-001 5.96926033e-001 4.79498655e-001 2.87105069e-002
      1.46566471e-002 3.79521012e-001 3.79521012e-001 2.50079244e-001
      3.74343991e-001 3.79521012e-001 3.79521012e-001 1.05774313e-001
      2.49331176e-001 3.79521012e-001 3.62019747e-001 3.62019747e-001
      3.59367937e-001 3.62019747e-001 3.62019747e-001 3.62019747e-001
      1.32604386e-003 2.84405202e-001 3.62019747e-001 3.40147167e-001
      1.25701949e-001 2.20675334e-001 3.61199737e-001 3.97509366e-001
      3.97509366e-001 2.30890229e-001 3.97509366e-001 3.97509366e-001
      7.24413767e-002 9.36334059e-002 5.66150010e-001 5.66150010e-001
      5.66150010e-001 1.13831744e-001 0. 2.15739831e-002 7.30126277e-002
      1.80031061e-001 1.20946385e-001 1.89880490e-001 4.36402887e-001
      4.36402887e-001 4.36402887e-001 3.70073289e-001 4.36402887e-001
      1.17485039e-001 2.30096243e-002 3.87684233e-003 3.94153222e-002
      1.60324544e-001 9.52539563e-001 2.27609351e-001 5.07004522e-002
      2.28678826e-002 2.15422753e-002 4.49150950e-002 2.39881221e-002
      4.89792198e-001 4.89792198e-001 4.89792198e-001 4.89792198e-001
      5.26190847e-002 2.60968152e-002 1.71697035e-001 6.14840677e-003
      8.68669245e-003 4.01207339e-003 6.00706041e-001 7.91239679e-001
      7.10645318e-002 3.44875315e-003 1.74625311e-003 9.85384220e-004
      2.49955356e-001 4.08416271e-001 3.07299644e-001 4.08416271e-001
      4.08416271e-001 4.08416271e-001 3.44633043e-001 1.84259385e-001
      1.38095513e-001 6.25352785e-002 4.20164429e-002 8.09131786e-002
      2.70587444e-001 9.19136822e-001 2.45151415e-001 1.53869279e-002
      5.89348748e-003 1.43513521e-002 9.64652002e-002 1.35393227e-002
      1.19837157e-001 6.37592316e-001 6.44218981e-001 3.61636549e-001
      4.91159363e-003 5.79145364e-002 1.18393570e-001 1.34244949e-001
      2.97543168e-001 4.51379627e-001 2.57588327e-001 5.19240856e-001
      5.19240856e-001 2.69739151e-001 9.76363104e-003 7.80305117e-002
      2.12935805e-001 2.15233073e-001 2.19713196e-001 5.96182048e-002
      5.13116300e-001 5.13116300e-001 5.13116300e-001 2.01729208e-001
      1.44293264e-001 3.61333311e-001 3.61333311e-001 2.89671570e-001
      2.85638303e-001 3.61333311e-001 3.61333311e-001 3.61333311e-001
      2.17992440e-001 3.61333311e-001 2.87699342e-001 3.55425060e-001
      2.86405981e-001 3.76738518e-001 3.76738518e-001 3.76738518e-001
      1.71788007e-001 3.28437358e-001 3.76738518e-001</_>
    <_>
      3.64786476e-001 2.18419120e-001 3.64786476e-001 1.31013140e-001
      3.64786476e-001 3.64786476e-001 3.64786476e-001 3.64786476e-001
      3.64786476e-001 3.61105293e-001 3.61105293e-001 3.61105293e-001
      3.61105293e-001 3.61105293e-001 3.61105293e-001 2.18392029e-001
      1.89520016e-001 3.61105293e-001 4.19977158e-001 1.80647254e-001
      2.81219091e-002 7.19068348e-002 4.19977158e-001 4.19977158e-001
      4.19977158e-001 2.74418980e-001 4.19977158e-001 1.49267334e-002
      4.43045199e-002 4.23569411e-001 4.23569411e-001 4.23569411e-001
      4.23569411e-001 3.49895269e-001 3.77630800e-001 1.04437493e-001
      3.50654095e-001 1.13270946e-001 3.50654095e-001 3.50654095e-001
      3.50654095e-001 3.50654095e-001 3.50654095e-001 3.50654095e-001
      3.50654095e-001 5.53595461e-002 1.44042850e-001 1.38423502e-001
      4.62035865e-001 4.62035865e-001 4.62035865e-001 1.94285199e-001
      3.41958612e-001 3.96606833e-001 2.99239904e-001 8.17800611e-002
      6.07041679e-002 1.92160040e-001 5.40567160e-001 5.40567160e-001
      4.56074506e-001 2.47549459e-001 6.36260509e-002 2.32612729e-001
      2.44504660e-001 3.28996807e-001 4.53553647e-001 4.53553647e-001
      4.53553647e-001 3.60372484e-001 8.96780491e-002 1.35263726e-001
      3.83798808e-001 1.56836137e-001 2.45211422e-001 3.83798808e-001
      3.83798808e-001 3.83798808e-001 3.83798808e-001 1.66223437e-001
      3.83798808e-001 2.50510182e-002 5.09648547e-002 1.69103906e-001
      4.62629616e-001 4.88925308e-001 4.88925308e-001 4.88925308e-001
      1.64115086e-001 7.20534176e-002 3.24635416e-001 4.31827694e-001
      1.07440211e-001 4.98985499e-001 4.98985499e-001 4.07968163e-001
      1.55295849e-001 4.52238023e-002 3.21971476e-002 3.10827349e-003
      6.59659458e-003 2.93444307e-003 1.17400512e-001 6.93949521e-001
      6.93949521e-001 1.13344304e-001 4.00108173e-002 4.06009443e-002
      1.44469589e-001 2.07371145e-001 3.24300796e-001 4.46355909e-001
      4.46355909e-001 4.46355909e-001 4.46355909e-001 1.48578614e-001
      8.65227804e-002 3.43149930e-001 3.43149930e-001 3.43149930e-001
      3.37210357e-001 3.43149930e-001 3.43149930e-001 3.43149930e-001
      2.88092047e-001 3.05536211e-001 3.56439024e-001 3.56439024e-001
      3.56439024e-001 3.56439024e-001 3.56439024e-001 3.56439024e-001
      2.89665014e-001 1.52287990e-001 3.56439024e-001 1.07451417e-002
      2.00150777e-002 3.12999427e-001 6.68417275e-001 6.68417275e-001
      3.32140848e-002 8.59515683e-004 7.73446076e-003 1.07451417e-002</_>
    <_>
      3.75474304e-001 3.75474304e-001 3.75474304e-001 3.75474304e-001
      3.75474304e-001 3.75474304e-001 2.55027145e-001 1.57468826e-001
      2.46023878e-001 3.77034158e-001 3.32580060e-001 2.28815466e-001
      1.66825891e-001 3.57468188e-001 3.77034158e-001 3.77034158e-001
      3.30202878e-001 3.77034158e-001 3.77982229e-001 3.77982229e-001
      9.20677111e-002 3.77982229e-001 3.77982229e-001 3.77982229e-001
      2.30431274e-001 2.78254062e-001 3.77982229e-001 1.50645082e-003
      3.23195830e-002 5.44686504e-002 3.39231528e-002 7.02656925e-001
      7.02656925e-001 1.91192813e-002 0. 1.50645082e-003 3.00394088e-001
      4.36393499e-001 4.36393499e-001 2.52249122e-001 4.36393499e-001
      4.07267898e-001 6.86486959e-002 8.42375755e-002 3.04599971e-001
      4.03753072e-001 3.25176507e-001 4.11272109e-001 4.11272109e-001
      4.11272109e-001 3.90168756e-001 1.91045001e-001 8.98429304e-002
      1.51325524e-001 4.73991126e-001 4.88557965e-002 1.96009949e-001
      3.16990048e-001 4.73991126e-001 1.41526699e-001 3.91743839e-001
      8.05015042e-002 4.73991126e-001 4.70438004e-001 2.94938624e-001
      8.86448938e-003 8.19987282e-002 4.70438004e-001 4.70438004e-001
      3.66289496e-001 2.71238536e-001 1.72731012e-001 3.45262080e-001
      3.66735518e-001 1.05395988e-001 3.66735518e-001 3.66735518e-001
      3.66735518e-001 3.66735518e-001 2.43006498e-001 3.66735518e-001
      2.44849473e-001 1.78178146e-001 3.07910323e-001 3.61093193e-001
      4.30794567e-001 4.01008368e-001 3.82466167e-001 3.94034714e-001
      1.75685972e-001 1.48463711e-001 8.65442678e-003 2.58972477e-002
      1.66925430e-001 9.52908039e-001 7.58096874e-002 1.68752205e-002
      7.44520407e-003 1.60378978e-001 3.94462496e-001 1.54856578e-001
      8.13945681e-002 1.78464621e-001 3.94462496e-001 3.94462496e-001
      3.94462496e-001 3.94462496e-001 3.94462496e-001 3.05437833e-001
      3.72413456e-001 2.12219715e-001 3.72413456e-001 3.72413456e-001
      3.72413456e-001 3.72413456e-001 1.60621762e-001 3.72413456e-001
      3.37185115e-001 3.37185115e-001 2.95093954e-001 3.37185115e-001
      3.37185115e-001 3.37185115e-001 3.37185115e-001 3.37185115e-001
      3.37185115e-001 4.22220230e-001 4.22220230e-001 4.22220230e-001
      2.34163627e-001 4.22220230e-001 6.80455789e-002 1.73914760e-001
      1.21339835e-001 4.22220230e-001 3.36716533e-001 2.99351722e-001
      3.36716533e-001 3.36716533e-001 3.36716533e-001 3.36716533e-001
      3.36716533e-001 3.36716533e-001 3.36716533e-001</_>
    <_>
      7.21124038e-002 4.41427022e-001 4.89534676e-001 4.89534676e-001
      4.89534676e-001 2.27306738e-001 7.94533715e-002 1.07374817e-001
      8.12988356e-002 3.57324153e-001 3.57324153e-001 3.57324153e-001
      3.57324153e-001 3.57324153e-001 3.57324153e-001 3.00250769e-001
      2.77358323e-001 2.51532018e-001 3.72521371e-001 3.72521371e-001
      3.72521371e-001 3.72521371e-001 3.72521371e-001 1.15905076e-001
      1.06953487e-001 3.72521371e-001 3.72521371e-001 1.63227543e-001
      8.96084234e-002 3.73149589e-002 3.16087723e-001 6.38686955e-001
      6.38686955e-001 1.38415828e-001 1.44492373e-001 4.20413762e-002
      1.07394107e-001 5.32929003e-002 4.26982850e-001 4.76197481e-001
      4.76197481e-001 4.76197481e-001 1.62555560e-001 9.52034146e-002
      2.87707418e-001 1.00084201e-001 4.10322011e-001 4.10322011e-001
      4.10322011e-001 4.10322011e-001 4.10322011e-001 2.87913173e-001
      4.10186499e-002 2.43899226e-001 3.70475262e-001 2.42086977e-001
      2.22400472e-001 3.70475262e-001 3.70475262e-001 3.70475262e-001
      2.91371763e-001 3.70475262e-001 3.42160076e-001 3.46979219e-003
      8.81265998e-002 4.59398508e-001 4.59398508e-001 4.59398508e-001
      4.52918679e-001 3.65301907e-001 1.23915404e-001 2.35843472e-002
      2.43173614e-001 2.27089107e-001 3.10395390e-001 4.98538643e-001
      4.98538643e-001 4.98538643e-001 1.97661653e-001 3.18743363e-002
      4.75846305e-002 1.32527873e-001 4.11801726e-001 4.20666933e-001
      4.20666933e-001 4.20666933e-001 4.20666933e-001 2.64870167e-001
      1.35739312e-001 1.10586472e-001 1.67915836e-001 7.27951527e-002
      2.59553403e-001 6.12260044e-001 6.12260044e-001 2.59737432e-001
      2.22332373e-001 1.55462697e-003 1.62486047e-001 1.15804762e-001
      5.74672148e-002 2.29524430e-002 1.37108624e-001 5.39675713e-001
      5.39675713e-001 5.39675713e-001 2.79208988e-001 8.28524828e-002
      3.59863728e-001 3.59863728e-001 3.59863728e-001 3.59863728e-001
      3.59863728e-001 3.59863728e-001 5.81619553e-002 2.94123173e-001
      3.59863728e-001 3.42100501e-001 2.45601267e-001 3.42100501e-001
      3.42100501e-001 3.42100501e-001 3.42100501e-001 3.42100501e-001
      3.42100501e-001 3.42100501e-001 4.71704811e-001 1.73768103e-001
      4.01858240e-002 4.71704811e-001 4.55938041e-001 3.94670069e-002
      1.98952742e-002 2.93477356e-001 4.71704811e-001 2.44762048e-001
      2.21154243e-001 2.70577908e-001 4.94261235e-001 4.94261235e-001
      4.94261235e-001 6.07788116e-002 1.24725595e-001 2.46780589e-001</_>
    <_>
      4.02798802e-001 3.08982670e-001 2.27162242e-001 4.02798802e-001
      4.02798802e-001 1.39796719e-001 1.34631321e-001 4.02798802e-001
      4.02798802e-001 3.50588411e-001 2.74561673e-001 3.50588411e-001
      3.50588411e-001 3.50588411e-001 2.47455433e-001 3.49864841e-001
      3.50588411e-001 3.50588411e-001 3.44189078e-001 3.44189078e-001
      3.44189078e-001 3.44189078e-001 2.45185211e-001 3.27387363e-001
      3.44189078e-001 3.44189078e-001 3.44189078e-001 3.74572784e-001
      1.79742560e-001 1.90438837e-001 2.93009967e-001 3.74572784e-001
      3.74572784e-001 3.74572784e-001 3.74572784e-001 3.74572784e-001
      2.70623207e-001 7.87058026e-002 1.84710130e-001 4.10314769e-001
      5.18306673e-001 5.18306673e-001 3.00873607e-001 1.19178072e-001
      2.66278535e-001 3.52660269e-001 3.52660269e-001 3.52660269e-001
      3.52660269e-001 3.52660269e-001 3.52660269e-001 3.24842542e-001
      1.42719984e-001 3.52660269e-001 1.82672724e-001 1.70694917e-001
      3.62847924e-001 3.65646064e-001 3.65646064e-001 3.65646064e-001
      3.65646064e-001 3.65646064e-001 3.65646064e-001 9.29217562e-002
      2.60683030e-001 5.11596322e-001 3.28765601e-001 5.84296405e-001
      3.91831398e-001 2.05178797e-001 9.41554308e-002 4.31288518e-002
      2.41533950e-001 2.09044367e-001 1.05291255e-001 4.40542907e-001
      4.40542907e-001 3.42259526e-001 1.28438830e-001 4.40542907e-001
      4.08170164e-001 1.69500008e-001 4.11381945e-002 9.02239978e-002
      5.43900788e-001 5.43900788e-001 4.69643444e-001 1.54492855e-001
      2.52675176e-001 2.36794591e-001 3.53342772e-001 3.53342772e-001
      1.96983218e-001 3.53342772e-001 3.38758737e-001 3.06273133e-001
      3.53342772e-001 3.53342772e-001 3.53342772e-001 4.19529170e-001
      9.78955477e-002 9.61249173e-002 4.19529170e-001 4.19529170e-001
      4.19529170e-001 2.76267618e-001 3.92670304e-001 2.06041157e-001
      4.28437710e-001 4.28437710e-001 4.28437710e-001 2.48650089e-001
      6.25497848e-002 1.64803267e-001 1.65468842e-001 3.75773102e-001
      4.28437710e-001 3.61369073e-001 3.24323028e-001 3.27255338e-001
      2.79386699e-001 3.61369073e-001 2.30463162e-001 3.61369073e-001
      3.61369073e-001 3.61369073e-001 3.41129273e-001 3.41129273e-001
      3.41129273e-001 3.41129273e-001 3.41129273e-001 3.41129273e-001
      3.41129273e-001 2.56199330e-001 3.41129273e-001 3.89322817e-001
      2.26803169e-001 3.89322817e-001 3.89322817e-001 3.89322817e-001
      1.47912785e-001 1.15581758e-001 3.89322817e-001 3.89322817e-001</_>
    <_>
      3.56281698e-001 3.01448375e-001 3.43770534e-001 3.56281698e-001
      3.56281698e-001 3.56281698e-001 2.87824929e-001 3.56281698e-001
      2.64319330e-001 3.40333313e-001 3.40333313e-001 3.40333313e-001
      3.40333313e-001 3.40333313e-001 3.06846678e-001 3.02749485e-001
      3.40333313e-001 3.40333313e-001 2.26637438e-001 3.57455820e-001
      3.57455820e-001 3.57455820e-001 3.57455820e-001 3.57455820e-001
      3.57455820e-001 3.57455820e-001 2.25036263e-001 3.71089071e-001
      2.30213061e-001 2.78180152e-001 3.43985289e-001 3.71089071e-001
      3.71089071e-001 3.09080809e-001 3.18158746e-001 3.71089071e-001
      2.88149249e-002 5.68485223e-002 2.44206354e-001 2.68613309e-001
      5.17700255e-001 5.17700255e-001 4.11590844e-001 2.13661805e-001
      3.28469694e-001 3.84066343e-001 2.29431808e-001 3.84066343e-001
      3.84066343e-001 3.84066343e-001 3.63177240e-001 3.55340242e-001
      2.05227658e-001 2.30680272e-001 2.70273298e-001 3.33119720e-001
      2.39857018e-001 3.60540718e-001 3.60540718e-001 3.60540718e-001
      3.60540718e-001 3.60540718e-001 3.23885828e-001 4.43253279e-001
      1.72798663e-001 2.31755480e-001 2.56048501e-001 6.08025730e-001
      3.97039682e-001 1.82333559e-001 2.13590890e-001 2.05237240e-001
      3.73218387e-001 3.73218387e-001 2.81957954e-001 3.73218387e-001
      3.73218387e-001 2.37243012e-001 3.73218387e-001 3.13725978e-001
      2.56130636e-001 3.85671556e-002 4.20562178e-002 7.75776729e-002
      5.96657336e-001 5.96657336e-001 4.30488557e-001 1.26515716e-001
      1.60753578e-001 2.13540807e-001 3.51023167e-001 3.51023167e-001
      3.50051612e-001 3.50524724e-001 3.28711480e-001 1.64169699e-001
      3.51023167e-001 3.51023167e-001 3.51023167e-001 4.40286636e-001
      4.40286636e-001 1.36433139e-001 4.40286636e-001 4.40286636e-001
      1.98734254e-001 2.26441875e-001 1.31352857e-001 3.05865914e-001
      4.00157452e-001 2.20761701e-001 2.69509166e-001 4.00157452e-001
      4.00157452e-001 1.18989445e-001 2.44628549e-001 4.00157452e-001
      4.00157452e-001 1.76137313e-001 2.86103129e-001 3.85291010e-001
      3.85291010e-001 3.51241678e-001 1.32871419e-001 3.85291010e-001
      3.85291010e-001 3.85291010e-001 3.84679615e-001 3.84679615e-001
      3.84679615e-001 7.19147772e-002 1.35799080e-001 3.84679615e-001
      3.80802453e-001 3.39070022e-001 3.47348720e-001 5.10496736e-001
      4.88462955e-001 2.49987513e-001 1.38744310e-001 3.21979403e-001
      1.36982417e-002 8.89184996e-002 2.03919068e-001 5.10496736e-001</_>
    <_>
      3.16887736e-001 1.94924176e-001 1.40423477e-001 1.87676877e-001
      4.95106518e-001 4.95106518e-001 4.95106518e-001 9.91120711e-002
      2.37667754e-001 4.15471852e-001 4.15471852e-001 4.15471852e-001
      4.15471852e-001 4.15471852e-001 9.53375921e-002 1.62891507e-001
      1.69052586e-001 2.61846632e-001 2.41853178e-001 1.37973279e-001
      2.39092737e-001 3.00431311e-001 4.30825621e-001 3.82870078e-001
      4.30825621e-001 3.24403435e-001 3.84309709e-001 4.95132059e-002
      1.99138865e-001 4.28288549e-001 4.28288549e-001 4.28288549e-001
      4.28288549e-001 2.24517718e-001 3.31378430e-001 2.44273826e-001
      3.75398219e-001 3.75398219e-001 2.20590889e-001 3.66975069e-001
      3.75398219e-001 1.70252576e-001 3.75398219e-001 2.81626374e-001
      3.75398219e-001 4.02349140e-003 2.96140909e-002 5.15666425e-001
      4.14891243e-001 5.15666425e-001 3.12541157e-001 4.35628116e-001
      4.84908558e-002 1.39004141e-002 7.60676265e-002 7.50451013e-002
      6.25274628e-002 2.59623557e-001 9.30636048e-001 1.83624744e-001
      8.80120397e-002 2.06820294e-002 2.80436175e-003 1.76640842e-002
      9.09088850e-002 2.82716066e-001 4.72260803e-001 4.72260803e-001
      4.72260803e-001 4.72260803e-001 1.10247277e-001 5.00267446e-002
      5.00679761e-002 2.97113368e-003 6.12735413e-002 6.89220846e-001
      6.89220846e-001 1.82584152e-001 3.53441201e-002 3.24869975e-002
      3.40216458e-002 0. 8.63395929e-002 4.72252369e-001 4.58251387e-001
      5.03417194e-001 5.03417194e-001 2.12481126e-001 4.99488004e-002 0.
      1.12368062e-001 1.47475898e-001 2.45454699e-001 5.71351528e-001
      7.31157064e-001 1.87573329e-001 6.51638303e-003 6.73286850e-003
      4.21119295e-002 9.43683237e-002 3.98480743e-002 1.05542662e-002
      4.31069762e-001 8.87929916e-001 5.53732850e-002 2.18990236e-003
      3.99616474e-005 5.67804724e-002 6.74564615e-002 1.02215245e-001
      4.43099082e-001 4.54653591e-001 5.28332651e-001 5.28332651e-001
      8.47806633e-002 7.50860348e-002 7.47134089e-002 3.41387898e-001
      1.56650901e-001 2.37461939e-001 4.22147751e-001 4.22147751e-001
      4.22147751e-001 4.22147751e-001 1.71825588e-001 2.36538872e-001
      3.52928609e-001 3.52928609e-001 3.52928609e-001 3.50543201e-001
      3.52928609e-001 3.52928609e-001 3.28178436e-001 1.36164114e-001
      3.52928609e-001 4.28958863e-001 1.61610156e-001 2.55857289e-001
      5.49245536e-001 5.49245536e-001 5.71275540e-002 4.89711426e-002
      1.52167812e-001 2.94568598e-001</_>
    <_>
      3.61112624e-001 3.61112624e-001 3.61112624e-001 3.61112624e-001
      3.61112624e-001 2.36834288e-001 1.90662518e-001 3.48619521e-001
      3.61112624e-001 4.17910188e-001 4.17910188e-001 2.17682958e-001
      1.66601554e-001 4.17910188e-001 4.17910188e-001 1.56491235e-001
      1.51489899e-001 4.17910188e-001 3.51779312e-001 3.51779312e-001
      3.51779312e-001 8.05974826e-002 3.51779312e-001 3.51779312e-001
      3.51779312e-001 3.51779312e-001 3.51779312e-001 2.59692878e-001
      3.25935185e-001 3.85377496e-001 3.85377496e-001 3.85377496e-001
      3.85377496e-001 1.55034482e-001 3.85377496e-001 2.36349508e-001
      3.87853712e-001 3.87853712e-001 1.75599173e-001 3.87853712e-001
      3.87853712e-001 3.87853712e-001 3.87853712e-001 6.05394244e-002
      2.42985681e-001 2.22104818e-001 4.16062593e-001 3.71846527e-001
      4.63240296e-001 4.63240296e-001 3.57210696e-001 3.08004823e-002
      2.04369370e-002 2.76614606e-001 5.65364175e-002 6.84093758e-002
      2.92306900e-001 4.53858823e-001 4.53858823e-001 4.53858823e-001
      3.60179603e-001 3.47248644e-001 1.84044808e-001 6.18640222e-002
      2.00211987e-001 6.14192635e-002 6.58562481e-001 6.58562481e-001
      2.33573392e-001 4.29126527e-003 1.11190945e-001 1.06740251e-001
      1.73780426e-001 1.93468519e-002 3.00283551e-001 4.38988447e-001
      4.38988447e-001 4.38988447e-001 1.62364498e-001 2.78684646e-001
      4.38988447e-001 4.41475451e-001 1.64816186e-001 1.85749996e-002
      2.77063072e-001 5.82503140e-001 5.82503140e-001 7.27663860e-002
      2.84242481e-002 1.01424105e-001 1.02855988e-001 1.19047202e-001
      3.55385661e-001 5.53925693e-001 5.53925693e-001 4.05575991e-001
      2.23864108e-001 4.01622988e-002 1.16320476e-001 2.28463467e-002
      1.13518545e-002 2.20669042e-002 9.45316553e-002 9.87579763e-001
      6.71819299e-002 8.73683114e-003 1.18976431e-002 5.43996179e-003
      2.68089801e-001 8.48494992e-002 4.01535332e-001 4.01535332e-001
      4.01535332e-001 4.01535332e-001 3.09478074e-001 1.24147780e-001
      4.01005268e-001 3.86594266e-001 3.86594266e-001 3.27198416e-001
      9.16628689e-002 3.86594266e-001 3.86594266e-001 1.79492876e-001
      3.18093598e-001 3.86594266e-001 3.32778692e-001 3.32778692e-001
      3.32778692e-001 3.32778692e-001 3.32778692e-001 3.32778692e-001
      3.32778692e-001 3.32778692e-001 3.32778692e-001 9.83978622e-003
      6.25027269e-002 2.84950525e-001 6.58188820e-001 6.58188820e-001
      1.55967772e-001 9.43105146e-002 7.07916543e-002 5.97650781e-002</_>
    <_>
      4.05753434e-001 4.05753434e-001 4.05753434e-001 4.05753434e-001
      4.05753434e-001 4.05753434e-001 4.73124124e-002 5.58194891e-002
      5.26994392e-002 2.19597429e-001 3.69364083e-001 3.69364083e-001
      3.69364083e-001 3.69364083e-001 3.69364083e-001 3.69364083e-001
      2.52448916e-001 2.56470799e-001 3.47885579e-001 3.10792059e-001
      3.42246622e-001 3.47885579e-001 3.47885579e-001 3.47885579e-001
      2.75606722e-001 3.18933666e-001 3.47885579e-001 1.22849546e-001 0.
      0. 2.92175692e-002 6.26425028e-001 6.26425028e-001 3.75273973e-001
      1.45708144e-001 1.75845921e-001 1.40054509e-001 1.68880094e-002
      2.10076064e-001 5.72023094e-001 5.72023094e-001 5.03029943e-001
      6.45059580e-003 4.29802872e-002 1.44591540e-001 1.42794818e-001
      4.40855734e-002 6.87698498e-002 4.18114960e-001 4.18114960e-001
      4.18114960e-001 4.18114960e-001 3.07667613e-001 4.18114960e-001
      3.64567846e-001 2.16992959e-001 3.64567846e-001 3.27634633e-001
      3.64567846e-001 3.64567846e-001 2.10876957e-001 3.64567846e-001
      3.64567846e-001 1.91665161e-002 2.52140671e-001 4.69164282e-001
      3.43432903e-001 6.07170820e-001 4.69747484e-001 4.84410375e-002
      7.74181215e-003 1.44398389e-002 2.31994465e-001 9.09072459e-002
      1.72407985e-001 5.37915528e-001 5.37915528e-001 5.37915528e-001
      1.61995173e-001 7.82234594e-002 4.89633307e-002 4.13023263e-001
      2.87855446e-001 1.02796957e-001 4.62327480e-001 4.62327480e-001
      4.62327480e-001 8.34379792e-002 2.28535324e-001 1.75884619e-001
      1.71555802e-001 1.31636769e-001 2.01478750e-001 4.11726803e-001
      4.11726803e-001 4.11726803e-001 4.11726803e-001 4.11726803e-001
      2.46857852e-001 3.49064857e-001 2.25285739e-001 3.74468654e-001
      3.74468654e-001 3.74468654e-001 3.74468654e-001 3.74468654e-001
      3.13562036e-001 1.55575931e-001 1.85786173e-001 3.94358933e-001
      3.94358933e-001 3.94358933e-001 3.94358933e-001 2.85805345e-001
      2.30810851e-001 2.21338615e-001 3.94358933e-001 4.01386887e-001
      1.18407324e-001 2.99088359e-001 4.01386887e-001 4.01386887e-001
      4.01386887e-001 3.63591284e-001 2.78110713e-001 1.96280807e-001
      3.86573464e-001 2.14409962e-001 3.95172805e-001 4.53974694e-001
      4.53974694e-001 4.53974694e-001 8.97793174e-002 9.48541313e-002
      9.25017744e-002 1.09330811e-001 3.56934547e-001 5.23292065e-001
      5.23292065e-001 5.23292065e-001 5.57059869e-002 5.61518036e-002
      1.36686385e-001 9.47380811e-002</_>
    <_>
      3.86852801e-001 3.86852801e-001 2.29483783e-001 2.78557509e-001
      3.86852801e-001 3.18796784e-001 3.17530572e-001 3.86852801e-001
      2.54559994e-001 3.68184090e-001 3.68184090e-001 3.68184090e-001
      3.68184090e-001 3.68184090e-001 3.68184090e-001 2.48931367e-002
      2.16298819e-001 3.68184090e-001 3.88145417e-001 3.88145417e-001
      2.09336385e-001 2.06695542e-001 3.88145417e-001 2.61541575e-001
      3.88145417e-001 2.96461374e-001 3.88145417e-001 3.67280930e-001
      2.33796567e-001 3.12699862e-002 3.62381518e-001 3.67280930e-001
      3.67280930e-001 3.67280930e-001 3.67280930e-001 3.67280930e-001
      1.57474756e-001 5.53377010e-002 2.69019902e-001 5.02163768e-001
      5.02163768e-001 5.02163768e-001 1.37626037e-001 1.67915761e-001
      3.01845014e-001 3.86268705e-001 3.86268705e-001 2.41466731e-001
      3.86268705e-001 3.86268705e-001 3.86268705e-001 3.46762277e-002
      2.03498065e-001 3.86268705e-001 2.27703422e-001 2.15868592e-001
      4.22901452e-001 4.22901452e-001 4.22901452e-001 4.22901452e-001
      4.85754944e-002 2.71946564e-002 4.22901452e-001 1.12729073e-001
      9.30883214e-002 4.76836354e-001 4.76836354e-001 4.76836354e-001
      4.76836354e-001 2.24417567e-001 3.54619175e-002 1.12923458e-001
      3.29992324e-001 1.01480097e-001 3.13474536e-001 3.11122984e-001
      4.25814629e-001 4.25814629e-001 2.94619292e-001 2.25243419e-001
      4.25814629e-001 2.30362907e-001 1.84233442e-001 2.17179969e-001
      4.45696026e-001 4.45696026e-001 4.45696026e-001 6.21698350e-002
      2.50852495e-001 4.45696026e-001 1.76490828e-001 2.48034392e-002
      1.89362258e-001 5.27427912e-001 6.55293465e-001 1.81587368e-001
      1.20293014e-001 1.81822076e-001 3.71136427e-001 1.50528982e-001
      1.82684287e-002 4.40789551e-001 4.40789551e-001 4.40789551e-001
      4.40789551e-001 3.38126659e-001 2.41730750e-001 1.50528982e-001
      2.54352421e-001 1.53525382e-001 1.17936600e-002 3.96008521e-001
      3.96008521e-001 3.51462394e-001 3.96008521e-001 3.96008521e-001
      3.96008521e-001 3.50052714e-001 3.50052714e-001 1.27308160e-001
      3.50052714e-001 3.50052714e-001 3.50052714e-001 3.50052714e-001
      3.50052714e-001 3.50052714e-001 4.05671924e-001 1.19380459e-001
      2.71867722e-001 1.17309697e-001 3.92197281e-001 4.05671924e-001
      3.73316467e-001 3.27305704e-001 4.05671924e-001 1.14780426e-001
      8.57785903e-003 4.98615712e-001 4.98615712e-001 4.98615712e-001
      2.69419551e-001 4.60005067e-002 1.80613831e-001 3.58601213e-001</_>
    <_>
      3.60914320e-001 3.60914320e-001 3.60914320e-001 3.60914320e-001
      3.60914320e-001 2.85586149e-001 1.80335328e-001 3.17425668e-001
      3.60914320e-001 3.45481187e-001 3.45481187e-001 3.45481187e-001
      3.45481187e-001 3.45481187e-001 3.45481187e-001 2.04181850e-001
      3.45481187e-001 3.45481187e-001 4.62941468e-001 4.62941468e-001
      1.60022587e-001 2.24366784e-001 4.62941468e-001 2.05664247e-001
      8.94544646e-002 1.08945750e-001 4.62941468e-001 3.58471662e-001
      3.48221362e-001 2.61656065e-002 3.58471662e-001 3.58471662e-001
      3.58471662e-001 3.21658373e-001 3.58471662e-001 3.58471662e-001
      4.16205764e-001 1.25788778e-001 1.97926179e-001 2.37173215e-001
      6.61899507e-001 2.05314681e-001 1.07658029e-001 1.38993308e-001
      4.44681376e-001 4.20018435e-001 7.68923461e-002 3.06026340e-001
      4.20018435e-001 4.20018435e-001 4.20018435e-001 4.83070388e-002
      1.08759098e-001 4.20018435e-001 1.85311437e-001 4.94227372e-002
      1.79095715e-001 6.23461902e-001 6.23461902e-001 2.99891293e-001
      5.72739914e-002 3.59674841e-002 2.30214238e-001 4.26199734e-002
      1.93352997e-001 4.75786179e-001 4.75786179e-001 4.75786179e-001
      2.40785569e-001 4.43547547e-001 1.35339484e-001 6.24467693e-002
      6.73359931e-002 1.53535798e-001 6.23374656e-002 2.65176833e-001
      5.02546966e-001 5.02546966e-001 7.85589218e-002 5.02546966e-001
      3.58938247e-001 3.64086986e-001 3.58335465e-001 2.15948403e-001
      3.64086986e-001 3.64086986e-001 3.64086986e-001 3.64086986e-001
      1.61147371e-001 3.64086986e-001 1.72913428e-002 2.05675443e-003
      3.31256799e-002 8.58400688e-002 5.31866133e-001 5.31866133e-001
      2.90295243e-001 5.31866133e-001 2.30224296e-001 1.31211430e-001 0.
      3.19732249e-001 4.95343268e-001 4.95343268e-001 4.95343268e-001
      3.49693388e-001 3.26549564e-003 1.31211430e-001 9.92015153e-002
      7.70215616e-002 1.02529727e-001 3.44933540e-001 4.12459671e-001
      4.12459671e-001 4.12459671e-001 4.12459671e-001 4.12459671e-001
      3.74937981e-001 5.22630364e-002 1.58206403e-001 3.74937981e-001
      3.53585392e-001 3.74937981e-001 3.74937981e-001 3.74937981e-001
      3.74937981e-001 3.87862444e-001 4.74991873e-002 1.75436899e-001
      2.20478281e-001 4.42956835e-001 4.42956835e-001 2.67729998e-001
      3.21218669e-001 4.42956835e-001 4.45325077e-001 0. 8.66897628e-002
      4.70024168e-001 4.70024168e-001 3.25469524e-001 6.47864118e-003
      1.43997177e-001 4.70024168e-001</_>
    <_>
      4.26423281e-001 7.57348388e-002 2.43521526e-001 4.26423281e-001
      4.26423281e-001 4.26423281e-001 1.06175102e-001 1.01215929e-001
      4.26423281e-001 3.91278476e-001 3.91278476e-001 3.91278476e-001
      3.91278476e-001 3.91278476e-001 1.81255788e-001 8.05946365e-002
      1.95317492e-001 3.91278476e-001 4.56428379e-001 1.67224064e-001
      2.22364008e-001 2.57050902e-001 4.56428379e-001 4.56428379e-001
      1.26741514e-001 5.08458391e-002 4.56428379e-001 3.89642119e-001
      4.59396765e-002 2.02472329e-001 3.58547837e-001 3.89642119e-001
      3.16320002e-001 3.89642119e-001 3.42203349e-001 3.89642119e-001
      2.45943159e-001 4.26497281e-001 1.40604109e-001 4.26497281e-001
      4.26497281e-001 3.29387605e-001 3.60162854e-002 2.79444069e-001
      4.26497281e-001 2.94383675e-001 1.28607064e-001 2.19666377e-001
      5.00907779e-001 5.00907779e-001 4.32029992e-001 3.72899741e-001
      7.66163170e-002 1.00751907e-001 1.62725940e-001 4.37221736e-001
      4.37221736e-001 4.37221736e-001 4.37221736e-001 3.90219033e-001
      1.24210149e-001 1.69429883e-001 8.99772719e-002 3.35053056e-001
      3.00621957e-001 2.19117463e-001 4.16296333e-001 4.74329084e-001
      2.30705395e-001 1.08950078e-001 2.37153634e-001 4.74329084e-001
      3.39697003e-001 3.39697003e-001 3.39697003e-001 3.39697003e-001
      3.39697003e-001 3.39697003e-001 2.90859759e-001 3.22874844e-001
      3.39697003e-001 6.09478541e-002 4.24842387e-001 4.31160539e-001
      4.31160539e-001 4.31160539e-001 4.31160539e-001 1.58935577e-001
      1.65450290e-001 1.23513319e-001 6.12854064e-002 6.08221814e-002
      1.28191128e-001 5.12402654e-001 5.12402654e-001 5.12402654e-001
      3.33269060e-001 2.22220108e-001 1.51245296e-001 0. 0.
      7.02930428e-003 3.57557684e-001 9.18006718e-001 1.40619799e-001
      2.08243597e-002 0. 0. 3.47367167e-001 1.76685408e-001
      3.47367167e-001 3.47367167e-001 3.47367167e-001 3.47367167e-001
      3.47367167e-001 3.47367167e-001 3.47367167e-001 3.32778692e-001
      3.32778692e-001 3.32778692e-001 3.32778692e-001 3.32778692e-001
      3.32778692e-001 3.32778692e-001 3.32778692e-001 3.32778692e-001
      3.40704948e-001 3.40704948e-001 3.40704948e-001 2.60685563e-001
      3.40704948e-001 3.40704948e-001 3.40704948e-001 3.40704948e-001
      3.40704948e-001 3.64792109e-001 2.53067762e-002 3.43833566e-001
      4.86254513e-001 5.53909242e-001 2.14674175e-001 1.85231268e-001
      3.15776430e-002 3.43339086e-001</_>
    <_>
      1.74048811e-001 4.43629831e-001 4.43629831e-001 4.43629831e-001
      4.43629831e-001 4.05117363e-001 7.03703910e-002 8.25792924e-002
      4.64166068e-002 3.61531764e-001 1.80646807e-001 3.61531764e-001
      3.61531764e-001 3.61531764e-001 3.61531764e-001 2.98157692e-001
      3.01040471e-001 3.61531764e-001 3.38723451e-001 3.38723451e-001
      3.38723451e-001 3.38723451e-001 3.38723451e-001 3.38723451e-001
      2.80619025e-001 3.38723451e-001 3.38723451e-001 4.31460381e-001
      2.86552403e-002 1.43750638e-001 1.40988454e-001 4.31460381e-001
      4.31460381e-001 4.14864153e-001 1.93861797e-001 4.31460381e-001
      2.52941936e-001 1.16555087e-001 1.08992636e-001 4.77533638e-001
      4.77533638e-001 4.77533638e-001 1.93704709e-001 2.80048579e-001
      3.25149655e-001 1.70919389e-001 9.02431384e-002 4.32747990e-001
      3.19236249e-001 4.32747990e-001 4.32747990e-001 4.32747990e-001
      3.12955588e-001 9.68687087e-002 1.15255371e-001 1.37172192e-001
      2.30594918e-001 5.21806180e-001 5.21806180e-001 5.11740685e-001
      2.59040236e-001 1.28194183e-001 1.39775962e-001 4.67649311e-001
      1.47500690e-002 2.35834066e-002 7.66802356e-002 6.85111225e-001
      1.59548163e-001 0. 2.45477306e-004 5.22473156e-001 3.84976625e-001
      3.19620252e-001 3.84976625e-001 3.84976625e-001 3.84976625e-001
      2.81484544e-001 3.84976625e-001 2.20443889e-001 1.58532932e-001
      1.09522365e-001 2.18829691e-001 3.37299854e-001 4.28010434e-001
      4.28010434e-001 4.28010434e-001 2.29142725e-001 3.04622233e-001
      3.56639534e-001 3.96451429e-002 4.59943675e-002 5.06464005e-001
      5.06464005e-001 5.06464005e-001 4.58119065e-001 9.07065645e-002
      4.35288213e-002 4.17329557e-002 1.55790597e-001 1.71174780e-001
      2.03602072e-002 9.38668624e-002 4.76914406e-001 4.76914406e-001
      4.76914406e-001 4.69861954e-001 1.71251670e-001 3.91118735e-001
      3.91118735e-001 3.91118735e-001 3.91118735e-001 3.91118735e-001
      1.59107327e-001 2.25836337e-001 4.39576395e-002 3.91118735e-001
      4.49210733e-001 2.38210976e-001 1.56793311e-001 1.93694100e-001
      4.49210733e-001 4.35719043e-001 1.80111721e-001 2.21370026e-001
      4.49210733e-001 3.69345397e-001 3.69345397e-001 3.69345397e-001
      3.69345397e-001 3.69345397e-001 3.08240324e-001 2.08557159e-001
      1.98256686e-001 3.69345397e-001 3.47716600e-001 3.47716600e-001
      3.47716600e-001 3.47716600e-001 3.47716600e-001 3.47716600e-001
      3.47716600e-001 1.71088666e-001 3.47716600e-001</_>
    <_>
      3.57081890e-001 3.01322550e-001 3.57081890e-001 3.57081890e-001
      3.57081890e-001 3.27801853e-001 3.57081890e-001 1.82039216e-001
      3.57081890e-001 2.46733651e-001 3.41998786e-001 3.41998786e-001
      3.41998786e-001 3.41998786e-001 3.41998786e-001 3.41998786e-001
      3.41998786e-001 3.41998786e-001 3.45342964e-001 3.45342964e-001
      3.45342964e-001 2.72790730e-001 3.45342964e-001 3.45342964e-001
      2.95469701e-001 3.45342964e-001 3.45342964e-001 4.12157208e-001
      2.22217739e-001 6.23702705e-002 4.12157208e-001 4.12157208e-001
      4.12157208e-001 3.05359125e-001 0. 4.12157208e-001 3.77411991e-001
      4.03512865e-001 4.03512865e-001 4.03512865e-001 4.03512865e-001
      4.03512865e-001 8.52598175e-002 4.87957299e-002 1.72527492e-001
      1.60232205e-002 7.15098456e-002 8.21696818e-002 6.66260242e-001
      6.66260242e-001 2.97639936e-001 5.97741790e-002 3.46635245e-002
      7.53772072e-003 4.44564670e-002 1.00187764e-001 3.13937694e-001
      4.81123775e-001 4.81123775e-001 2.67249614e-001 1.65094614e-001
      3.89304280e-001 4.14037585e-001 4.71699804e-001 0. 3.44645269e-002
      7.61653483e-002 5.76964676e-001 4.57461298e-001 9.45446920e-003 0.
      4.71699804e-001 1.65851027e-001 2.37686649e-001 4.25653994e-001
      3.78967881e-001 4.25653994e-001 4.25653994e-001 4.25653994e-001
      1.97493136e-001 6.63414448e-002 2.04947472e-004 8.76727689e-004
      4.36630286e-003 5.05487323e-001 7.35721290e-001 4.41396087e-001
      3.16648521e-002 2.93727731e-004 4.40178192e-005 2.40592420e-001
      2.45338865e-002 1.26413271e-001 4.49222326e-001 5.04227161e-001
      5.04227161e-001 2.30268687e-001 3.11900198e-001 2.44746834e-001
      3.18351686e-001 0. 4.77987617e-001 1.49692997e-001 4.77987617e-001
      4.77987617e-001 2.28534460e-001 2.00569779e-001 3.05936903e-001
      3.79863411e-001 3.79863411e-001 2.63746679e-001 3.79863411e-001
      3.79863411e-001 3.79863411e-001 1.54326975e-001 1.92480534e-001
      3.79863411e-001 3.61308873e-001 3.61308873e-001 3.61308873e-001
      2.30869502e-001 3.61308873e-001 3.61308873e-001 3.61308873e-001
      1.71116441e-001 3.61308873e-001 3.39190751e-001 3.39190751e-001
      3.39190751e-001 3.39190751e-001 3.39190751e-001 3.07285309e-001
      3.39190751e-001 3.11181813e-001 3.39190751e-001 3.86335194e-001
      3.59557152e-001 3.86335194e-001 3.86335194e-001 3.86335194e-001
      2.84805387e-001 1.07947804e-001 3.86335194e-001 1.66786671e-001</_>
    <_>
      4.17458117e-001 3.70599538e-001 2.62211740e-001 4.69324738e-001
      4.69324738e-001 1.88606054e-001 1.18763760e-001 5.86714223e-002
      3.48268628e-001 2.86049545e-001 3.75125229e-001 3.75125229e-001
      3.75125229e-001 3.75125229e-001 3.00101429e-001 3.75125229e-001
      1.21525995e-001 3.25582445e-001 5.66069245e-001 2.68608122e-003
      5.97350262e-002 1.15613595e-001 6.11131966e-001 3.56796086e-002
      2.41560116e-002 1.35857677e-002 5.30092776e-001 7.04964995e-003 0.
      0. 0. 7.03082263e-001 7.03082263e-001 6.50606602e-002 0.
      7.04964995e-003 3.54127914e-001 2.00337797e-001 2.25262493e-001
      4.36240643e-001 4.36240643e-001 4.36240643e-001 2.50023633e-001
      1.62503384e-002 3.81659508e-001 3.47929835e-001 4.06363934e-001
      9.38300043e-002 4.06363934e-001 4.06363934e-001 3.35607320e-001
      2.65627265e-001 3.41813803e-001 2.65818596e-001 5.13288558e-001
      1.39533907e-001 1.30046517e-001 3.37110698e-001 5.13288558e-001
      1.96549818e-001 2.96887346e-002 1.22227594e-001 5.13288558e-001
      2.08870901e-004 0. 0. 7.56927431e-002 9.89979863e-001
      6.58411458e-002 0. 0. 2.08870901e-004 8.31744447e-002
      1.87709183e-001 1.19988680e-001 9.52410176e-002 4.90583658e-001
      4.90583658e-001 3.54301065e-001 2.86239326e-001 4.90583658e-001
      3.77191275e-001 1.77387148e-001 6.48905039e-002 2.84600794e-001
      4.49960083e-001 4.42453474e-001 2.88113326e-001 3.27882499e-001
      3.84463757e-001 1.75388768e-001 1.81633905e-001 1.73221916e-001
      4.50612605e-001 4.50612605e-001 4.50612605e-001 4.32424635e-001
      2.71691591e-001 1.78265050e-001 1.21638969e-001 2.77146306e-002 0.
      1.13504350e-001 6.75290823e-001 6.75290823e-001 1.53669104e-001
      9.92767587e-002 1.38944909e-001 3.62246007e-001 4.20215279e-001
      1.27057955e-001 4.20215279e-001 4.20215279e-001 4.20215279e-001
      3.49908590e-001 1.20625734e-001 7.15978891e-002 3.86479557e-001
      3.86479557e-001 3.86479557e-001 3.86479557e-001 3.86479557e-001
      3.86479557e-001 7.68890083e-002 1.95721850e-001 2.36053601e-001
      5.21459043e-001 4.15160023e-002 2.32863680e-001 3.05052876e-001
      5.21459043e-001 1.28537700e-001 1.09901451e-001 3.77754308e-002
      5.21459043e-001 3.66415590e-001 3.66415590e-001 3.66415590e-001
      3.66415590e-001 3.66415590e-001 2.16692567e-001 9.77809057e-002
      3.66415590e-001 3.66415590e-001</_>
    <_>
      4.48045731e-001 4.48045731e-001 3.65263760e-001 1.30132228e-001
      9.03200880e-002 4.72134985e-002 1.78341493e-001 4.48045731e-001
      4.48045731e-001 3.97257149e-001 3.97257149e-001 2.94369757e-001
      1.65718660e-001 3.97257149e-001 3.97257149e-001 2.72022903e-001
      1.37304381e-001 3.97257149e-001 3.31039250e-001 1.32250771e-001
      8.95153657e-002 3.39727610e-001 4.04630721e-001 4.04630721e-001
      4.04630721e-001 3.00913006e-001 4.04630721e-001 3.80823523e-001
      3.29055995e-001 3.37669402e-002 1.28911063e-001 3.80823523e-001
      3.80823523e-001 3.80823523e-001 3.80823523e-001 3.80823523e-001
      2.83058971e-001 4.81273174e-001 2.22449213e-001 3.19181472e-001
      6.79306746e-001 2.58627206e-001 3.88429314e-002 3.39559047e-003
      1.56727582e-002 3.64640653e-002 4.07813489e-003 5.19976653e-002
      1.86448008e-001 7.84750640e-001 5.76428950e-001 3.40154469e-002
      4.30374779e-002 4.73467708e-002 8.40792060e-002 1.45376936e-001
      9.22655761e-002 2.27759004e-001 7.86194742e-001 4.94127333e-001
      1.34010434e-001 6.74081147e-002 1.37099251e-001 1.45205751e-001
      1.09189726e-001 2.77418375e-001 5.56391180e-001 5.94477713e-001
      4.08602208e-001 9.38303545e-002 1.79163113e-001 1.15159884e-001
      4.50806879e-002 2.37288978e-003 6.32532686e-003 5.78743160e-001
      5.78743160e-001 5.06945491e-001 2.02803522e-001 1.36113793e-001
      7.48724639e-002 2.31072139e-002 4.97656912e-002 3.54389399e-001
      4.20878530e-001 6.62704647e-001 4.93833512e-001 5.24859875e-002
      4.24080379e-002 6.37633726e-003 2.06243694e-002 9.23528299e-002
      1.85780495e-001 4.37620431e-001 6.14913583e-001 6.14913583e-001
      2.80855559e-002 2.65608914e-002 3.38854231e-002 1.16627663e-002
      2.69022230e-002 3.97760235e-002 4.52772677e-001 8.75432014e-001
      1.30744189e-001 7.37661403e-003 1.52805215e-002 7.51860393e-003
      1.69525012e-001 6.15416840e-002 7.81126693e-002 2.04835132e-001
      4.27818030e-001 4.27818030e-001 4.27818030e-001 4.27818030e-001
      4.27818030e-001 2.24040210e-001 3.46233428e-001 3.46233428e-001
      3.27419877e-001 3.46233428e-001 3.46233428e-001 3.46233428e-001
      3.46233428e-001 3.46233428e-001 2.41882712e-001 1.59208342e-001
      2.53580242e-001 5.49649894e-001 5.49649894e-001 4.77975160e-001
      5.69148324e-002 8.05854145e-003 1.01779126e-001 1.48834512e-001
      2.79874504e-002 1.23677710e-002 5.56135058e-001 5.56135058e-001
      5.56135058e-001 1.04992032e-001 1.69396922e-002 1.79414421e-001</_>
    <_>
      3.51819247e-001 3.51819247e-001 3.43663663e-001 3.51819247e-001
      3.51819247e-001 3.23876411e-001 1.80852339e-001 3.51819247e-001
      3.49131465e-001 3.68404478e-001 3.68404478e-001 3.68404478e-001
      3.68404478e-001 3.68404478e-001 5.51893748e-002 2.07895339e-001
      3.68404478e-001 3.68404478e-001 5.04235685e-001 4.11766231e-001
      6.84668794e-002 6.38959333e-002 4.66994822e-001 2.93737173e-001
      3.35883237e-002 5.13914302e-002 5.04235685e-001 9.20746773e-002
      1.20556867e-002 1.73703507e-001 4.19240832e-001 4.20106322e-001
      4.20106322e-001 4.20106322e-001 4.20106322e-001 2.74385273e-001
      1.04184374e-002 8.11358541e-003 5.78887202e-002 4.02586490e-001
      7.30990589e-001 1.49798661e-001 4.56107318e-001 2.17920661e-001
      1.21622175e-001 3.91961813e-001 2.42717907e-001 2.01537460e-001
      3.91961813e-001 3.91961813e-001 3.91961813e-001 3.91961813e-001
      2.48501927e-001 2.58130282e-001 6.22580275e-002 5.25537729e-002
      6.60805330e-002 4.01525348e-001 6.49512470e-001 6.03058338e-001
      1.78327024e-001 0. 6.27850592e-002 7.38140941e-002 2.02441320e-001
      2.40050808e-001 4.55103248e-001 4.55103248e-001 4.55103248e-001
      2.50034958e-001 4.42769945e-001 1.07141159e-001 1.12927876e-001
      1.11604206e-001 2.71083146e-001 3.79193008e-001 6.89472079e-001
      4.34860229e-001 2.66166776e-001 4.00534645e-002 1.17096320e-001
      3.63074869e-001 1.97392866e-001 3.63074869e-001 3.63074869e-001
      3.63074869e-001 2.85420775e-001 2.91553587e-001 3.63074869e-001
      3.63074869e-001 6.09592423e-002 1.25750987e-004 5.75707369e-002
      2.66236722e-001 6.22168601e-001 6.22168601e-001 3.31799835e-001
      5.15638888e-002 1.70112431e-001 1.14210121e-001 7.05326675e-003
      3.40256914e-002 4.77573425e-001 6.04400694e-001 6.04400694e-001
      1.27867106e-002 1.48091400e-002 1.43715441e-001 1.74551196e-002
      1.70304310e-002 1.92412604e-002 5.59900105e-001 5.59900105e-001
      5.59900105e-001 1.06783740e-001 8.33415389e-002 1.86094239e-001
      3.54848325e-001 3.41255486e-001 3.52228224e-001 3.54848325e-001
      3.54848325e-001 3.54848325e-001 3.54848325e-001 2.53363252e-001
      2.49309093e-001 3.50507706e-001 3.50507706e-001 1.16845354e-001
      3.50507706e-001 3.50507706e-001 3.50507706e-001 3.50507706e-001
      3.50507706e-001 3.50507706e-001 2.26659551e-001 1.27615437e-001
      2.00058818e-002 4.29635614e-001 4.29635614e-001 4.29635614e-001
      6.86579719e-002 4.29635614e-001 4.29635614e-001</_>
    <_>
      3.70703310e-001 3.70703310e-001 2.86662161e-001 1.96915641e-001
      3.70703310e-001 3.70703310e-001 2.25432232e-001 3.70703310e-001
      3.70703310e-001 2.57307291e-001 2.16716573e-001 2.09345028e-001
      3.96806568e-001 3.96806568e-001 3.96806568e-001 3.96806568e-001
      3.83452922e-001 2.49357715e-001 3.74023736e-001 4.82876003e-002
      1.21141404e-001 3.74023736e-001 3.74023736e-001 3.74023736e-001
      3.74023736e-001 3.74023736e-001 3.74023736e-001 1.48194268e-001
      3.83519560e-001 3.83519560e-001 5.00956289e-002 3.83519560e-001
      3.83519560e-001 3.83519560e-001 2.98619986e-001 3.83519560e-001
      4.04959023e-001 4.04959023e-001 3.00204396e-001 4.04959023e-001
      4.04959023e-001 2.57453233e-001 3.03337038e-001 1.53283283e-001
      2.60908633e-001 4.63041626e-002 6.47213385e-002 3.13375443e-002
      5.24944305e-001 5.24944305e-001 5.24944305e-001 3.88847291e-001
      8.74090642e-002 4.35928218e-002 4.56646504e-003 5.63981012e-003
      1.00730844e-002 3.22570801e-001 6.63306177e-001 6.63306177e-001
      9.60174650e-002 1.40938745e-003 6.97015435e-004 9.74922627e-002
      7.23254681e-002 2.61110574e-001 6.24303818e-001 6.24303818e-001
      3.06631327e-001 7.05024693e-003 5.81431314e-002 1.84089020e-001
      2.53737599e-001 3.52364890e-002 3.70020606e-002 4.92958575e-001
      6.99202418e-001 3.75531226e-001 8.86885375e-002 2.29185615e-002
      2.11471260e-001 6.62252232e-002 4.41442341e-001 3.63801330e-001
      4.41442341e-001 4.41442341e-001 4.41442341e-001 1.96367409e-002
      1.47672206e-001 2.39113346e-001 1.03617407e-001 6.02820031e-002
      1.83345824e-001 4.49395090e-001 4.49395090e-001 4.49395090e-001
      4.49395090e-001 3.72444838e-001 3.14004682e-002 1.12855546e-001
      2.75122672e-001 4.05239969e-001 4.86130446e-001 4.86130446e-001
      3.73019010e-001 3.59630048e-001 3.10609629e-003 3.69345397e-002
      9.35540274e-002 1.02352984e-002 1.20243043e-001 5.69860280e-001
      5.69860280e-001 5.50375342e-001 7.94875100e-002 2.83116265e-003
      1.10784315e-001 4.13845539e-001 7.23283291e-002 1.53284192e-001
      4.09857422e-001 4.13845539e-001 1.75039500e-001 4.13845539e-001
      2.88866699e-001 4.13845539e-001 3.67261916e-001 3.67261916e-001
      3.67261916e-001 3.67261916e-001 3.56586397e-001 2.05289528e-001
      1.33211300e-001 3.67261916e-001 3.67261916e-001 6.37833998e-002
      1.52449706e-003 1.02730624e-001 6.61070228e-001 6.61070228e-001
      2.67854869e-001 8.35606921e-003 2.15816293e-002 1.80184856e-001</_>
    <_>
      3.92328680e-001 3.39836001e-001 1.69293448e-001 2.38708541e-001
      3.92328680e-001 3.92328680e-001 1.59188867e-001 3.92328680e-001
      3.92328680e-001 1.32478625e-001 3.59806210e-001 3.59806210e-001
      3.59806210e-001 3.59806210e-001 3.59806210e-001 2.69501746e-001
      3.59806210e-001 3.59806210e-001 4.22114521e-001 2.00675413e-001
      1.67709991e-001 3.55332792e-001 4.22114521e-001 2.96399355e-001
      2.34429948e-002 4.22114521e-001 4.22114521e-001 3.67248386e-001
      3.67248386e-001 2.23121718e-001 2.69694209e-001 3.67248386e-001
      3.67248386e-001 3.21145117e-001 3.67248386e-001 3.10357302e-001
      1.31385714e-001 3.54085118e-001 4.03404444e-001 4.03404444e-001
      4.03404444e-001 4.03404444e-001 4.03404444e-001 1.71460748e-001
      1.01277292e-001 4.39368099e-001 1.63042262e-001 1.00236088e-001
      4.49013919e-001 4.49013919e-001 3.70172769e-001 4.35081385e-002
      1.48590624e-001 4.49013919e-001 4.43067402e-002 1.55948848e-001
      4.75092083e-001 4.75092083e-001 4.75092083e-001 4.75092083e-001
      1.17185250e-001 1.84683740e-001 1.35208175e-001 2.47733012e-001
      3.51352900e-001 1.56611651e-001 3.93337935e-001 3.93337935e-001
      3.93337935e-001 3.93337935e-001 3.42147857e-001 2.25385651e-001
      3.65784317e-001 1.49044767e-001 2.82693803e-001 4.14375275e-001
      4.14375275e-001 4.14375275e-001 3.02779824e-001 5.43660931e-002
      3.87531221e-001 1.71332359e-001 2.11532027e-001 3.82710129e-001
      3.82710129e-001 3.82710129e-001 3.82710129e-001 3.82710129e-001
      3.22096258e-001 2.93248475e-001 2.22568974e-001 1.53268889e-001
      2.93236524e-001 3.53218049e-001 3.91013175e-001 3.91013175e-001
      3.17410827e-001 3.91013175e-001 3.91013175e-001 5.33639826e-002
      4.12247367e-002 2.82062292e-002 6.94179952e-001 6.94179952e-001
      1.48754001e-001 2.96271350e-002 5.59226563e-003 3.03205512e-002
      2.27629930e-001 1.26783058e-001 2.05213472e-001 3.84945959e-001
      3.84945959e-001 3.84945959e-001 3.84945959e-001 3.81097704e-001
      3.84945959e-001 2.31986403e-001 1.79047525e-001 3.86232108e-001
      3.86232108e-001 3.86232108e-001 3.86232108e-001 3.86232108e-001
      3.33485723e-001 2.30600759e-001 4.84030485e-001 6.82526231e-002
      5.58599308e-002 1.33022144e-001 4.84030485e-001 4.84030485e-001
      3.95783260e-002 1.76020652e-001 4.84030485e-001 1.31053880e-001
      8.09627026e-003 4.68406469e-001 4.94088560e-001 4.94088560e-001
      4.94088560e-001 1.21780448e-001 2.65050270e-002 1.02549896e-001</_>
    <_>
      6.91010281e-002 2.69725740e-001 1.91170141e-001 5.16299903e-001
      5.16299903e-001 5.16299903e-001 2.30277345e-001 1.40761510e-001
      9.07337740e-002 3.32778692e-001 3.32778692e-001 3.32778692e-001
      3.32778692e-001 3.32778692e-001 3.32778692e-001 3.32778692e-001
      3.32778692e-001 3.32778692e-001 5.58850467e-001 1.27507240e-001
      2.22969756e-001 1.83269709e-001 4.83103573e-001 1.54757336e-001
      6.67378381e-002 9.18560550e-002 5.58850467e-001 3.81824225e-001
      3.81824225e-001 1.65883705e-001 2.11136341e-002 3.05751294e-001
      3.81824225e-001 3.81824225e-001 3.81824225e-001 3.81824225e-001
      3.40921342e-001 2.74441451e-001 3.40921342e-001 3.40921342e-001
      3.40921342e-001 3.40921342e-001 3.40921342e-001 3.40921342e-001
      3.28152567e-001 3.89545411e-001 1.71515167e-001 2.42929712e-001
      4.81092602e-001 5.74999630e-001 1.01928130e-001 5.62435426e-002
      3.28974664e-001 2.65007287e-001 2.72128552e-001 4.97600645e-001
      3.03536773e-001 1.85348988e-001 4.97600645e-001 4.97600645e-001
      8.71783122e-002 2.08881885e-001 2.08946969e-002 2.24409997e-001
      2.09171593e-001 5.53388707e-002 2.73520797e-001 6.24008834e-001
      6.24008834e-001 1.21046484e-001 8.90925452e-002 1.42889142e-001
      1.94988266e-001 1.78757980e-001 3.71795654e-001 3.71795654e-001
      3.71795654e-001 3.71795654e-001 3.71795654e-001 3.71795654e-001
      3.11317414e-001 3.46827745e-001 1.91741243e-001 3.43137950e-001
      3.46827745e-001 3.46827745e-001 3.46827745e-001 3.46827745e-001
      3.46827745e-001 3.46827745e-001 3.20635110e-001 2.92226017e-001
      2.80850291e-001 3.48672867e-001 3.48672867e-001 3.48672867e-001
      3.48672867e-001 3.48672867e-001 3.48672867e-001 2.00432017e-001
      2.39134192e-001 4.17176634e-001 4.17176634e-001 4.17176634e-001
      4.17176634e-001 3.64412338e-001 1.77516088e-001 1.94988936e-001
      5.10105528e-002 3.38269807e-002 1.50323898e-001 3.56786817e-001
      4.31368977e-001 4.31368977e-001 4.31368977e-001 4.31368977e-001
      3.12624156e-001 3.28175277e-001 3.16786498e-001 3.38054150e-001
      3.38054150e-001 3.20758402e-001 3.38054150e-001 3.38054150e-001
      3.38054150e-001 3.38054150e-001 4.00665253e-001 5.52446991e-002
      4.07628417e-002 4.00665253e-001 4.00665253e-001 4.00665253e-001
      2.65442163e-001 3.43745589e-001 4.00665253e-001 2.82909572e-001
      3.38485688e-001 3.38485688e-001 3.38485688e-001 3.38485688e-001
      3.38485688e-001 3.38485688e-001 3.38485688e-001 3.38485688e-001</_>
    <_>
      3.75854015e-001 3.75854015e-001 3.75854015e-001 3.75854015e-001
      3.75854015e-001 2.45098442e-001 1.70248404e-001 2.44110063e-001
      3.75854015e-001 3.59646499e-001 1.58615798e-001 3.59646499e-001
      3.59646499e-001 3.59646499e-001 2.56570697e-001 3.59646499e-001
      3.59646499e-001 3.59646499e-001 1.08268805e-001 3.23559083e-002
      1.61850005e-001 2.99579859e-001 4.16443825e-001 4.16443825e-001
      4.16443825e-001 4.16443825e-001 4.16443825e-001 3.88117433e-001
      3.38617653e-001 3.57694447e-001 1.61361933e-001 3.13423842e-001
      1.63409412e-001 3.88117433e-001 3.88117433e-001 3.88117433e-001
      1.67804450e-001 4.24608439e-001 4.24608439e-001 4.24608439e-001
      4.24608439e-001 4.24608439e-001 2.30460808e-001 1.04842424e-001
      4.51043844e-002 7.24030212e-002 1.21287286e-001 4.64227915e-001
      4.76842165e-001 4.76842165e-001 4.76842165e-001 2.64765650e-001
      6.89914525e-002 5.27333021e-002 6.63883239e-003 2.67531537e-002
      5.87658770e-002 3.73534262e-001 7.28587687e-001 4.65484738e-001
      2.50899196e-001 1.93029240e-001 3.54904570e-002 1.79719523e-001
      1.52391389e-001 5.00760712e-002 2.78450906e-001 5.21452665e-001
      5.21452665e-001 5.21452665e-001 1.19953908e-001 1.70587078e-001
      3.65242809e-001 3.65196884e-001 1.30992204e-001 6.94533065e-002
      3.76161754e-001 3.76161754e-001 3.76161754e-001 3.76161754e-001
      3.76161754e-001 1.33546591e-001 7.63382092e-002 9.04436782e-002
      5.74113309e-001 5.74113309e-001 3.42243284e-001 5.04662953e-002
      2.52649844e-001 3.45981836e-001 4.44174595e-002 2.86796615e-002
      1.36927783e-001 4.95018870e-001 4.95018870e-001 4.95018870e-001
      3.69370908e-001 2.53044844e-001 1.94714040e-001 7.93015882e-002
      2.28986517e-002 2.00163841e-001 9.81148854e-002 5.31330466e-001
      5.31330466e-001 5.31330466e-001 2.67482251e-001 1.40377000e-001
      3.64464134e-001 3.64464134e-001 3.64464134e-001 3.64464134e-001
      3.64464134e-001 3.64464134e-001 2.41836235e-001 3.23194712e-001
      1.90825522e-001 3.35240573e-001 3.12346667e-001 3.35240573e-001
      3.35240573e-001 3.35240573e-001 3.35240573e-001 3.35240573e-001
      3.35240573e-001 3.35240573e-001 1.74995527e-001 3.27910811e-001
      3.24101150e-001 4.20370549e-001 4.20370549e-001 4.20370549e-001
      2.70832807e-001 3.22819591e-001 2.11927354e-001 4.91616219e-001
      4.91616219e-001 4.16331477e-002 3.24010402e-002 1.05037607e-001 0.
      1.20531730e-001 4.91616219e-001 4.91616219e-001</_>
    <_>
      3.50264251e-001 3.50264251e-001 3.50264251e-001 3.50264251e-001
      3.50264251e-001 3.50264251e-001 1.22556970e-001 3.50264251e-001
      3.50264251e-001 3.52378249e-001 3.49342257e-001 7.26515055e-002
      3.52333188e-001 3.52378249e-001 3.52378249e-001 3.52378249e-001
      3.52378249e-001 3.52378249e-001 4.12844986e-001 3.47786129e-001
      3.66717935e-001 1.85120597e-001 4.12844986e-001 3.23164999e-001
      2.34971851e-001 1.87612757e-001 4.12844986e-001 4.35131133e-001
      4.35131133e-001 1.69130355e-001 1.32591218e-001 2.45280519e-001
      3.37063074e-001 1.35416001e-001 4.35131133e-001 4.35131133e-001
      4.52853329e-002 9.64899063e-002 2.85255406e-002 6.40675783e-001
      6.40675783e-001 3.49658102e-001 8.19835365e-002 1.76357448e-001
      2.03442369e-002 8.02162662e-002 3.25559616e-001 4.45956796e-001
      4.45956796e-001 4.45956796e-001 4.45956796e-001 2.35040277e-001
      1.69948205e-001 5.90381660e-002 3.68826985e-001 4.03432138e-002
      2.41586000e-001 5.14324069e-001 5.14324069e-001 3.47828954e-001
      4.87136431e-002 3.69621843e-001 9.90048796e-002 2.93839008e-001
      1.16524473e-001 5.79493642e-002 4.32319403e-001 4.32319403e-001
      4.32319403e-001 6.19759522e-002 3.75449955e-001 4.32319403e-001
      9.90877021e-003 2.58737445e-001 4.05766398e-001 4.39401209e-001
      5.28061092e-001 5.01156569e-001 1.76608846e-001 9.09375325e-002
      2.22861711e-002 2.26501852e-001 7.00571239e-002 1.96821511e-001
      4.24535751e-001 4.24535751e-001 4.24535751e-001 3.42399590e-002
      4.22746539e-001 4.24535751e-001 3.11700016e-001 1.29871517e-001
      3.30670863e-001 3.58944565e-001 3.58944565e-001 3.58944565e-001
      3.58944565e-001 3.58944565e-001 3.58944565e-001 8.58386233e-002
      2.24698931e-002 1.79275855e-001 5.40853560e-001 5.54290652e-001
      5.54290652e-001 1.19464740e-001 6.73354715e-002 1.69254363e-001
      3.80028695e-001 3.80028695e-001 3.65881860e-001 3.80028695e-001
      3.80028695e-001 3.80028695e-001 3.54557991e-001 1.15411013e-001
      3.45497057e-002 3.56553137e-001 3.99442047e-001 3.99700493e-001
      3.99700493e-001 3.99700493e-001 2.41740644e-001 2.58080244e-001
      1.93251535e-001 2.60098726e-001 3.90772790e-001 3.31713855e-001
      3.98773625e-002 1.32492721e-001 3.90772790e-001 3.90772790e-001
      3.56607258e-001 3.59075636e-001 3.90772790e-001 6.48877546e-002
      5.68099134e-002 4.10930157e-001 4.24614400e-001 4.24614400e-001
      4.24614400e-001 1.58775359e-001 2.70292044e-001 4.24614400e-001</_>
    <_>
      3.41859877e-001 3.41859877e-001 3.41859877e-001 2.48271838e-001
      3.41859877e-001 3.41859877e-001 3.41859877e-001 3.41859877e-001
      3.41859877e-001 3.76389056e-001 4.07319888e-002 1.62133873e-001
      3.51025313e-001 3.76389056e-001 3.76389056e-001 3.69771391e-001
      3.76389056e-001 3.76389056e-001 3.56490225e-001 3.56490225e-001
      3.47629458e-001 2.92207897e-001 2.72512019e-001 3.56490225e-001
      2.83755809e-001 3.56490225e-001 3.56490225e-001 3.80604982e-001
      3.80604982e-001 3.80604982e-001 2.58027822e-001 2.59724587e-001
      1.24278024e-001 3.49880666e-001 3.80604982e-001 3.80604982e-001
      1.56065831e-002 4.07167614e-001 4.49874640e-001 4.36979860e-001
      4.49874640e-001 4.49874640e-001 7.86022618e-002 1.57843590e-001
      1.64691880e-002 1.17102928e-001 1.52404726e-001 3.06731701e-001
      2.43910372e-001 4.90671694e-001 2.60368317e-001 4.83298242e-001
      4.90671694e-001 1.47296280e-001 4.47658926e-001 3.14435154e-001
      2.66922712e-002 4.47658926e-001 4.47658926e-001 4.47658926e-001
      6.74361512e-002 2.47411504e-001 1.69092834e-001 2.62707531e-001
      2.13345394e-001 3.49935889e-001 5.47301710e-001 5.47301710e-001
      3.29076916e-001 0. 9.17239394e-003 2.23816529e-001 2.37319972e-002
      8.29366893e-002 2.21270159e-001 4.91909593e-001 6.23956382e-001
      5.08823276e-001 2.07504168e-001 3.85287404e-002 5.12644127e-002
      3.93786043e-001 1.41136661e-001 8.85299668e-002 3.66138101e-001
      3.93786043e-001 3.93786043e-001 2.82343119e-001 3.66421074e-001
      3.93786043e-001 4.08377260e-001 1.45375013e-001 4.69008349e-002
      1.09060846e-001 4.08377260e-001 4.08377260e-001 3.56135607e-001
      4.08377260e-001 4.08377260e-001 4.56004627e-002 1.41304955e-001
      5.09940922e-001 5.48550725e-001 5.48550725e-001 2.84663141e-001
      1.06381014e-001 1.11944430e-001 7.57523999e-002 2.46354386e-001
      3.46447468e-001 2.72873342e-001 3.82781208e-001 3.82781208e-001
      3.82781208e-001 3.82781208e-001 3.82781208e-001 9.16104317e-002
      1.36126086e-001 1.31496564e-001 3.81799877e-001 3.81799877e-001
      3.81799877e-001 3.81799877e-001 3.81799877e-001 3.37693572e-001
      3.42741013e-001 3.76578540e-001 1.99313208e-001 6.05487004e-002
      3.19338977e-001 3.76578540e-001 3.76578540e-001 3.76578540e-001
      3.76578540e-001 3.76578540e-001 3.64031971e-001 2.34227449e-001
      3.64031971e-001 3.64031971e-001 3.64031971e-001 3.64031971e-001
      3.23483258e-001 2.04312116e-001 3.64031971e-001</_>
    <_>
      3.56833190e-001 3.56833190e-001 7.16433674e-002 3.56833190e-001
      3.56833190e-001 3.56833190e-001 3.56833190e-001 3.16216290e-001
      3.56833190e-001 3.58454078e-001 3.58454078e-001 3.58454078e-001
      3.58454078e-001 3.58454078e-001 3.58454078e-001 3.58454078e-001
      2.55535364e-001 1.78031683e-001 3.81302804e-001 2.92620718e-001
      3.81302804e-001 2.77839541e-001 3.81302804e-001 2.42690891e-001
      2.17969954e-001 3.81302804e-001 3.81302804e-001 4.15099144e-001
      4.15099144e-001 2.32073903e-001 5.77728301e-002 2.94773668e-001
      1.21657126e-001 3.84364545e-001 4.15099144e-001 4.15099144e-001
      2.95194443e-002 6.97687194e-002 4.80241984e-001 4.80241984e-001
      4.80241984e-001 4.80241984e-001 2.07372308e-001 1.12901255e-001
      1.05758756e-001 2.56758869e-001 6.11516647e-002 5.01348963e-003
      2.16310114e-001 4.95420933e-001 4.95420933e-001 3.80612016e-001
      2.74528772e-001 4.09214795e-001 4.23557647e-002 1.09232426e-001
      4.30824161e-001 5.07854283e-001 5.07854283e-001 5.07854283e-001
      8.68212953e-002 1.44648189e-002 1.18733503e-001 3.35891575e-001
      3.73012908e-002 2.18811393e-001 5.67108989e-001 5.67108989e-001
      5.54056726e-002 2.74368897e-002 8.19662288e-002 4.22466278e-001
      1.79513153e-002 6.58741314e-003 8.99642035e-002 4.68504161e-001
      6.10646069e-001 6.10646069e-001 1.41392872e-001 4.58645821e-003
      1.25439698e-002 1.58876911e-001 1.55422509e-001 2.49614548e-002
      4.01551336e-001 4.41052735e-001 4.41052735e-001 4.41052735e-001
      4.41052735e-001 7.88649544e-002 3.45109403e-001 4.39305641e-002
      2.68781930e-001 3.65848511e-001 3.65848511e-001 3.65848511e-001
      3.65848511e-001 3.65848511e-001 3.65848511e-001 1.48012713e-001
      1.80798724e-001 5.30436873e-001 5.37398040e-001 5.37398040e-001
      2.11536333e-001 8.37974548e-002 1.42544568e-001 9.48278457e-002
      3.67613584e-001 3.67613584e-001 3.67613584e-001 3.67613584e-001
      3.67613584e-001 3.67613584e-001 3.67613584e-001 2.22698450e-001
      2.74679381e-002 3.43555063e-001 3.43555063e-001 3.43555063e-001
      3.43555063e-001 3.43555063e-001 3.43555063e-001 3.43555063e-001
      3.43555063e-001 2.28750274e-001 3.77207249e-001 3.57443541e-001
      1.25094369e-001 2.62497365e-001 3.77207249e-001 3.77207249e-001
      2.69231558e-001 3.77207249e-001 3.77207249e-001 3.48699450e-001
      2.64181495e-001 3.48699450e-001 3.48699450e-001 3.48699450e-001
      3.48699450e-001 3.48699450e-001 3.32465768e-001 2.94351548e-001</_>
    <_>
      3.54444027e-001 3.54444027e-001 3.17050934e-001 1.72467798e-001
      3.35274607e-001 3.54444027e-001 3.54444027e-001 3.54444027e-001
      3.54444027e-001 3.72534484e-001 3.72534484e-001 3.72534484e-001
      3.72534484e-001 3.72534484e-001 2.15208262e-001 1.72169641e-001
      3.72534484e-001 2.96023190e-001 3.40640783e-001 3.40640783e-001
      3.40640783e-001 3.40640783e-001 3.40640783e-001 2.61356950e-001
      3.40640783e-001 3.40640783e-001 3.40640783e-001 4.16306227e-001
      4.16306227e-001 2.14500457e-001 1.96669355e-001 2.69559056e-001
      2.34354332e-001 3.00540477e-001 4.16306227e-001 4.16306227e-001
      8.32993910e-002 2.00537115e-001 4.25759166e-001 4.95062888e-001
      4.95062888e-001 4.95062888e-001 1.27484709e-001 2.06762534e-002
      1.21198930e-001 3.03421933e-002 5.70816286e-002 4.47687238e-001
      4.47687238e-001 4.47687238e-001 4.47687238e-001 3.82840574e-001
      2.04794005e-001 3.38560455e-002 4.22752142e-001 3.43338788e-001
      2.65635196e-002 4.22752142e-001 4.22752142e-001 4.22752142e-001
      9.64987800e-002 2.99419433e-001 2.51690775e-001 4.60235447e-001
      1.11804895e-001 1.03083253e-001 4.60235447e-001 4.60235447e-001
      3.12834620e-001 1.10071510e-001 1.22591123e-001 4.60235447e-001
      1.65812522e-001 7.63403848e-002 0. 3.49728972e-001 5.16277671e-001
      5.16277671e-001 5.16277671e-001 7.94210732e-002 1.82417840e-001
      3.39777619e-001 2.19904408e-001 3.44911397e-001 3.44911397e-001
      3.44911397e-001 3.44911397e-001 3.44911397e-001 3.44911397e-001
      3.44911397e-001 3.82015914e-001 1.18475132e-001 1.07551157e-001
      3.08160573e-001 3.82015914e-001 3.82015914e-001 3.82015914e-001
      3.82015914e-001 3.82015914e-001 3.64812493e-001 1.80893391e-001
      3.29781651e-001 2.64408588e-001 4.74310011e-001 4.74310011e-001
      1.42070532e-001 1.45643219e-001 3.99309814e-001 3.44184130e-001
      2.21041471e-001 3.44184130e-001 3.44184130e-001 3.44184130e-001
      3.44184130e-001 3.44184130e-001 3.44184130e-001 3.44184130e-001
      2.85691679e-001 3.77387106e-001 2.12654382e-001 2.55552173e-001
      3.84629935e-001 3.84629935e-001 2.64248073e-001 3.84629935e-001
      3.84629935e-001 3.66260022e-001 3.66260022e-001 3.66260022e-001
      1.53996825e-001 3.66260022e-001 3.66260022e-001 3.66260022e-001
      3.43682140e-001 2.22777665e-001 2.86023647e-001 2.22947717e-001
      3.51521730e-001 3.51521730e-001 3.51521730e-001 3.51521730e-001
      3.51521730e-001 3.51521730e-001 3.51521730e-001</_>
    <_>
      3.66655767e-001 3.66655767e-001 3.66655767e-001 3.66655767e-001
      3.66655767e-001 2.86659777e-001 3.66655767e-001 7.35419989e-002
      3.19587111e-001 2.89677024e-001 3.39507073e-001 3.39507073e-001
      3.39507073e-001 3.39507073e-001 3.39507073e-001 3.25330228e-001
      3.39507073e-001 3.39507073e-001 3.50409001e-001 3.36249292e-001
      3.50409001e-001 3.18906039e-001 3.50409001e-001 3.50409001e-001
      3.50409001e-001 3.50409001e-001 2.12168515e-001 4.95642535e-002
      3.80786806e-002 1.06697954e-001 5.28439760e-001 7.58029461e-001
      3.02699625e-001 1.38002172e-001 1.00442849e-001 5.02527095e-002
      8.83340612e-002 4.32375073e-002 1.38582557e-001 5.54656088e-001
      5.54656088e-001 5.54656088e-001 1.57570794e-001 1.14796005e-001
      6.81677312e-002 1.58941582e-001 9.29458141e-002 3.12885612e-001
      3.38615209e-001 4.30987448e-001 4.30987448e-001 4.30987448e-001
      7.89614096e-002 4.30987448e-001 2.60002971e-001 1.33024426e-002
      4.73630689e-002 4.74388748e-001 5.35459101e-001 5.35459101e-001
      3.11876148e-001 1.05553605e-001 1.33210406e-001 1.00479677e-001
      1.59028813e-001 2.39580601e-001 5.47165036e-001 5.47165036e-001
      5.47165036e-001 4.97417152e-003 7.45278739e-005 5.96420690e-002
      7.11883605e-002 2.99672633e-001 3.86664897e-001 3.86664897e-001
      3.86664897e-001 3.86664897e-001 1.57576531e-001 3.59007567e-001
      3.86664897e-001 3.06868315e-001 3.43890637e-001 3.59734803e-001
      4.44192886e-001 4.44192886e-001 4.44192886e-001 1.25505954e-001
      5.07606305e-002 2.08505645e-001 1.95412070e-001 2.19194680e-001
      4.98326659e-001 5.09662569e-001 5.09662569e-001 3.38268548e-001
      4.77999710e-002 1.02804430e-001 1.16435476e-001 2.36367539e-001
      1.71758756e-002 1.46132214e-002 2.50930667e-001 5.85664690e-001
      5.85664690e-001 3.43525797e-001 5.17416783e-002 2.60987103e-001
      4.03686762e-001 4.69513424e-002 4.61326130e-002 1.17714353e-001
      4.03686762e-001 4.03686762e-001 4.03686762e-001 4.03686762e-001
      4.03686762e-001 3.62282485e-001 2.47172549e-001 3.62282485e-001
      3.62282485e-001 3.62282485e-001 3.62282485e-001 3.62282485e-001
      3.62282485e-001 1.28630936e-001 2.05937266e-001 1.56149715e-001
      1.36740044e-001 4.12100881e-001 4.12100881e-001 2.85594553e-001
      3.86677742e-001 4.12100881e-001 4.12100881e-001 3.46516132e-001
      3.35729361e-001 4.33397532e-001 4.33397532e-001 4.33397532e-001
      2.08812088e-001 4.24766392e-002 1.29637033e-001 3.70365262e-001</_>
    <_>
      3.89858454e-001 3.89858454e-001 3.89858454e-001 3.89858454e-001
      3.68923813e-001 3.00764263e-001 2.67670490e-002 9.42161605e-002
      3.89858454e-001 3.96977514e-001 1.79471672e-001 8.12308863e-002
      2.58486480e-001 3.96977514e-001 3.96977514e-001 3.20085585e-001
      3.96977514e-001 3.96977514e-001 3.65805596e-001 3.65805596e-001
      3.09762150e-001 2.38987401e-001 3.65805596e-001 3.65805596e-001
      2.00985938e-001 3.65805596e-001 3.65805596e-001 4.19518530e-001
      8.84695724e-002 4.44066152e-002 1.01687066e-001 4.19518530e-001
      4.19518530e-001 4.19518530e-001 3.09339851e-001 4.19518530e-001
      3.77584308e-001 2.14635849e-001 6.96582198e-002 2.99812526e-001
      3.77584308e-001 3.77584308e-001 3.77584308e-001 3.77584308e-001
      3.77584308e-001 3.90865028e-001 4.00150985e-001 4.00150985e-001
      4.00150985e-001 4.00150985e-001 3.52262080e-001 8.62668753e-002
      2.10419804e-001 1.64124519e-001 2.18473017e-001 1.32633775e-001
      2.10703641e-001 2.11687773e-001 4.10212666e-001 4.10212666e-001
      4.10212666e-001 4.10212666e-001 4.10212666e-001 3.28448936e-002
      1.05985679e-001 2.71243565e-002 2.18143135e-001 7.72058547e-001
      5.74309051e-001 3.02650407e-002 6.63397759e-002 2.09333301e-002
      3.54461282e-001 6.66340962e-002 3.54461282e-001 3.54461282e-001
      3.54461282e-001 3.42889518e-001 3.47258389e-001 3.54461282e-001
      3.54461282e-001 3.58386397e-001 3.58386397e-001 5.02476059e-002
      3.07910681e-001 3.58386397e-001 3.58386397e-001 3.58386397e-001
      3.58386397e-001 3.58386397e-001 3.77412140e-001 3.77412140e-001
      3.77412140e-001 3.64971846e-001 3.77412140e-001 3.77412140e-001
      4.35757972e-002 8.05393383e-002 3.77412140e-001 5.62446676e-002
      2.48045139e-002 5.00404164e-002 6.58553779e-001 7.23569512e-001
      1.66990608e-001 1.88892037e-002 3.50914011e-003 3.15255374e-002
      3.78607959e-001 2.13897973e-001 1.00143336e-001 2.83500820e-001
      3.78607959e-001 3.78607959e-001 3.78607959e-001 3.78607959e-001
      3.78607959e-001 2.27421701e-001 2.63303310e-001 3.78767014e-001
      3.78767014e-001 3.78767014e-001 3.78767014e-001 3.78767014e-001
      3.57360274e-001 1.73603341e-001 3.79102618e-001 3.79102618e-001
      3.79102618e-001 3.14640254e-002 3.79102618e-001 2.23407358e-001
      3.79102618e-001 2.88095534e-001 3.79102618e-001 3.57977629e-001
      3.57977629e-001 3.57977629e-001 3.57977629e-001 3.57977629e-001
      3.57977629e-001 1.36581361e-001 3.57977629e-001 2.84135520e-001</_>
    <_>
      4.05736834e-001 4.05736834e-001 4.05736834e-001 4.05736834e-001
      4.05736834e-001 3.08668334e-002 3.33606116e-002 7.84026906e-002
      4.05736834e-001 3.35831165e-001 1.35738328e-001 3.52062136e-001
      3.52062136e-001 3.52062136e-001 3.48695636e-001 3.52062136e-001
      3.52062136e-001 3.52062136e-001 3.22486371e-001 2.74576377e-002
      4.24292386e-001 4.24292386e-001 4.24292386e-001 4.24292386e-001
      1.49858534e-001 2.48653010e-001 2.94326782e-001 4.08961922e-001
      2.14744154e-002 2.67158240e-001 4.08961922e-001 4.08961922e-001
      4.08961922e-001 4.08961922e-001 4.84749787e-002 2.92370856e-001
      6.68505626e-003 1.36255641e-002 1.04965735e-002 6.79964066e-001
      6.79964066e-001 2.59790212e-001 2.34120619e-002 1.05236480e-002
      4.40451270e-003 8.48447010e-002 3.79953980e-001 2.12198943e-001
      4.12832797e-001 4.12832797e-001 4.12832797e-001 4.12832797e-001
      2.29288682e-001 2.54925579e-001 4.38654646e-002 8.23163539e-002
      1.79465964e-001 5.01652062e-001 5.72003365e-001 5.72003365e-001
      2.03013942e-001 7.77539164e-002 9.44945682e-003 4.26748879e-002
      4.80628833e-002 7.06904456e-002 2.36304656e-001 7.13043272e-001
      5.92284739e-001 1.86456680e-001 1.70406893e-001 6.98402822e-002
      5.53796068e-003 1.69065576e-002 3.86052355e-002 3.14212441e-001
      6.66975021e-001 6.66975021e-001 1.29460171e-002 4.85363342e-002
      2.38854326e-002 2.27396637e-001 4.40329984e-002 8.23107883e-002
      4.84517336e-001 4.84517336e-001 4.84517336e-001 3.55243385e-001
      2.84510732e-001 1.52715817e-001 1.83963701e-002 2.13581949e-001
      3.08267269e-002 5.61536431e-001 5.61536431e-001 5.61536431e-001
      3.13224010e-002 1.21056624e-002 1.97323393e-002 9.25819352e-002
      4.73552868e-002 5.57621300e-001 5.69999397e-001 5.69999397e-001
      1.25246614e-001 3.94414589e-002 1.50893368e-002 7.26920888e-002
      3.65159333e-001 2.63838083e-001 3.18400472e-001 1.59104690e-001
      3.65159333e-001 3.65159333e-001 3.65159333e-001 3.65159333e-001
      3.65159333e-001 3.74572247e-001 3.74572247e-001 2.80254573e-001
      3.74572247e-001 3.74572247e-001 3.74572247e-001 2.27658436e-001
      1.55114844e-001 3.74572247e-001 3.05932134e-001 3.76729906e-001
      2.78363496e-001 4.06565100e-001 4.06565100e-001 4.06565100e-001
      2.59515733e-001 2.24864230e-001 2.62934506e-001 3.82877052e-001
      2.36994654e-001 3.82877052e-001 3.51033956e-001 3.82877052e-001
      2.83883601e-001 3.82877052e-001 5.67415506e-002 3.82877052e-001</_>
    <_>
      3.34532291e-001 3.45506340e-001 3.45506340e-001 3.45506340e-001
      3.45506340e-001 3.45506340e-001 3.45506340e-001 3.45506340e-001
      2.21390143e-001 3.48589748e-001 3.48589748e-001 3.48589748e-001
      1.89166740e-001 3.48589748e-001 3.31857413e-001 3.48589748e-001
      3.48589748e-001 3.48589748e-001 4.95315999e-001 2.24357948e-001
      6.43666182e-003 9.78899375e-002 4.27966416e-001 9.44476128e-002
      8.36850554e-002 4.95315999e-001 4.95315999e-001 1.95402488e-001
      1.28036409e-004 8.38397909e-003 1.07234739e-001 5.43610275e-001
      5.43610275e-001 5.43610275e-001 6.89030141e-002 2.31377587e-001
      2.62772441e-001 1.76503047e-001 1.28834754e-001 4.76798117e-001
      4.76798117e-001 4.76798117e-001 3.93006504e-001 4.37155887e-002
      2.00155109e-001 2.19743490e-001 3.38130772e-001 3.63010168e-001
      3.63010168e-001 3.63010168e-001 3.63010168e-001 2.07593963e-001
      3.63010168e-001 3.63010168e-001 6.00241959e-001 1.26111954e-001 0.
      1.20264478e-001 6.87052488e-001 1.16013132e-001 1.40963927e-001
      2.44440176e-002 3.10667753e-001 3.52966711e-002 2.78904598e-004 0.
      7.51425475e-002 9.81494248e-001 1.37858674e-001 0. 0.
      3.13181877e-002 9.61007327e-002 9.24457535e-002 1.12976909e-001
      5.23806751e-001 5.23806751e-001 5.23806751e-001 2.14449957e-001
      3.02254766e-001 6.12869374e-002 2.41089791e-001 4.11458984e-002
      2.45694324e-001 4.60580409e-001 4.60580409e-001 4.60580409e-001
      2.69633476e-002 1.61097616e-001 4.60580409e-001 2.53667712e-001
      7.06576109e-002 3.72595966e-001 2.24496961e-001 7.14357793e-001
      1.47821993e-001 7.01267505e-003 6.60455152e-002 4.44672137e-001
      9.61821526e-002 3.56139988e-002 2.14391598e-003 3.03944852e-002
      9.83728528e-001 2.63435002e-002 0. 0. 1.01603143e-001
      1.36831000e-001 1.73060969e-001 2.43904009e-001 6.05270088e-001
      6.05270088e-001 3.78535360e-001 3.80062275e-002 7.19311684e-002
      5.64193763e-002 3.63197088e-001 2.49734566e-001 1.03049219e-001
